{"learner":{"attributes":{},"feature_names":["A1_Score","A2_Score","A3_Score","A4_Score","A5_Score","A6_Score","A7_Score","A8_Score","A9_Score","A10_Score","age","result","autism","jaundice","relation"],"feature_types":["int","int","int","int","int","int","int","int","int","int","int","int","int","int","int"],"gradient_booster":{"model":{"gbtree_model_param":{"num_parallel_tree":"1","num_trees":"100"},"iteration_indptr":[0,1,2,3,4,5,6,7,8,9,10,11,12,13,14,15,16,17,18,19,20,21,22,23,24,25,26,27,28,29,30,31,32,33,34,35,36,37,38,39,40,41,42,43,44,45,46,47,48,49,50,51,52,53,54,55,56,57,58,59,60,61,62,63,64,65,66,67,68,69,70,71,72,73,74,75,76,77,78,79,80,81,82,83,84,85,86,87,88,89,90,91,92,93,94,95,96,97,98,99,100],"tree_info":[0,0,0,0,0,0,0,0,0,0,0,0,0,0,0,0,0,0,0,0,0,0,0,0,0,0,0,0,0,0,0,0,0,0,0,0,0,0,0,0,0,0,0,0,0,0,0,0,0,0,0,0,0,0,0,0,0,0,0,0,0,0,0,0,0,0,0,0,0,0,0,0,0,0,0,0,0,0,0,0,0,0,0,0,0,0,0,0,0,0,0,0,0,0,0,0,0,0,0,0],"trees":[{"base_weights":[-1.2069816E-1,-9.2648727E-1,1.8007095E0,-1.1433969E0,2.2770253E-1,1.1048357E0,1.0232958E0,-3.7815943E-1,-7.2617954E-1,-1.0677477E0,2.0904047E0,-3.6566386E-1,1.7466536E0,-3.5659605E-1,-2.7259243E-1,-3.7251246E-1,-9.07565E-2,4.549247E-2,8.431509E-1,2.1000457E0,-3.3861402E-1,7.2140485E-2,-3.2493296E-1,-2.1449642E-1,1.5645903E-1,-2.1449642E-1,1.8877204E-1,3.3820832E-1,2.3769681E0,-2.9807594E-1,4.8567528E-1,-1.93763E-1,1.3203642E-1,-1.7525192E-1,3.186321E-1,3.1731695E-1,7.7711767E-1,-7.429806E-2,2.8522566E-1],"categories":[],"categories_nodes":[],"categories_segments":[],"categories_sizes":[],"default_left":[0,0,0,0,0,0,0,0,0,0,0,0,0,0,0,0,0,0,0,0,0,0,0,0,0,0,0,0,0,0,0,0,0,0,0,0,0,0,0],"id":0,"left_children":[1,3,5,7,9,11,-1,-1,13,15,17,-1,19,-1,21,-1,23,25,-1,27,29,31,-1,-1,-1,-1,-1,33,35,-1,37,-1,-1,-1,-1,-1,-1,-1,-1],"loss_changes":[3.4557492E2,3.960515E1,7.015407E1,5.558014E0,6.423797E1,7.303448E1,0E0,0E0,6.2618523E0,2.575653E0,1.5891121E1,0E0,2.8466621E1,0E0,4.8693604E0,0E0,1.6990072E0,2.1588306E0,0E0,1.4977066E1,3.8942044E0,3.710668E0,0E0,0E0,0E0,0E0,0E0,4.332459E0,5.08342E0,0E0,1.4188035E0,0E0,0E0,0E0,0E0,0E0,0E0,0E0,0E0],"parents":[2147483647,0,0,1,1,2,2,3,3,4,4,5,5,8,8,9,9,10,10,12,12,14,14,16,16,17,17,19,19,20,20,21,21,27,27,28,28,30,30],"right_children":[2,4,6,8,10,12,-1,-1,14,16,18,-1,20,-1,22,-1,24,26,-1,28,30,32,-1,-1,-1,-1,-1,34,36,-1,38,-1,-1,-1,-1,-1,-1,-1,-1],"split_conditions":[1E0,1.4E1,1.4E1,1E0,1E0,1E0,1.0232958E0,-3.7815943E-1,1E0,1E0,1E0,-3.6566386E-1,1E1,-3.5659605E-1,1.1E1,-3.7251246E-1,1E0,1E0,8.431509E-1,1E0,1E0,1E0,-3.2493296E-1,-2.1449642E-1,1.5645903E-1,-2.1449642E-1,1.8877204E-1,2E1,1E0,-2.9807594E-1,1E0,-1.93763E-1,1.3203642E-1,-1.7525192E-1,3.186321E-1,3.1731695E-1,7.7711767E-1,-7.429806E-2,2.8522566E-1],"split_indices":[5,11,11,8,4,8,0,0,2,8,3,0,11,0,11,0,2,8,0,4,7,3,0,0,0,0,0,10,7,0,1,0,0,0,0,0,0,0,0],"split_type":[0,0,0,0,0,0,0,0,0,0,0,0,0,0,0,0,0,0,0,0,0,0,0,0,0,0,0,0,0,0,0,0,0,0,0,0,0,0,0],"sum_hessian":[2.211261E2,1.5615607E2,6.497004E1,1.3145985E2,2.4696215E1,4.6542866E1,1.8427176E1,1.0106451E2,3.039534E1,1.4817729E1,9.878486E0,9.878486E0,3.666438E1,1.4247816E1,1.6147526E1,1.2348107E1,2.4696214E0,2.8495631E0,7.0289226E0,3.1345196E1,5.319185E0,1.1968165E1,4.1793594E0,1.1398253E0,1.3297962E0,1.1398253E0,1.7097379E0,4.5593014E0,2.6785894E1,2.8495631E0,2.4696214E0,3.7994175E0,8.168748E0,2.0896797E0,2.4696214E0,4.5593014E0,2.2226593E1,1.1398253E0,1.3297962E0],"tree_param":{"num_deleted":"0","num_feature":"15","num_nodes":"39","size_leaf_vector":"1"}},{"base_weights":[-1.453446E-1,-8.050954E-1,1.0117884E0,-1.0110954E0,1.16723776E-1,-2.1792707E-1,1.27765E0,-1.1653672E0,-6.651895E-1,-9.4213283E-1,1.205134E0,-6.9381934E-1,1.0966871E0,9.8958373E-1,1.7749224E0,-3.5314712E-1,-1.4761983E-1,-1.1893811E-2,-3.2819307E-1,-3.3715412E-1,-8.685723E-2,1.7838746E-2,1.5409206E0,-8.318386E-2,-3.2121608E-1,7.4834704E-2,4.09935E-1,-2.8071615E-1,1.1653701E0,7.869968E-1,5.6683844E-1,-7.273464E-1,4.117633E-1,-1.9308816E-1,1.23408005E-1,1.740756E-1,-2.1507145E-1,1.0543104E-1,4.9991414E-1,2.6152602E-1,-4.1109043E-1,1.5465714E0,6.392706E-1,3.4158984E-1,6.3897416E-2,-9.47305E-2,-2.7529183E-1,-2.1196628E-1,2.663438E-1,-8.163251E-2,2.01522E-1,-2.4547637E-1,6.160622E-2,1.4223509E-1,4.9103114E-1,-1.7784269E-1,2.5285515E-1],"categories":[],"categories_nodes":[],"categories_segments":[],"categories_sizes":[],"default_left":[0,0,0,0,0,0,0,0,0,0,0,0,0,0,0,0,0,0,0,0,0,0,0,0,0,0,0,0,0,0,0,0,0,0,0,0,0,0,0,0,0,0,0,0,0,0,0,0,0,0,0,0,0,0,0,0,0],"id":1,"left_children":[1,3,5,7,9,11,13,15,17,19,21,23,25,27,29,-1,-1,31,-1,-1,33,35,37,39,-1,-1,-1,-1,41,43,-1,45,47,-1,-1,-1,-1,-1,-1,49,51,53,55,-1,-1,-1,-1,-1,-1,-1,-1,-1,-1,-1,-1,-1,-1],"loss_changes":[1.6156306E2,2.56893E1,2.5420807E1,5.1037445E0,3.0514936E1,9.847988E0,7.322357E0,1.4984131E-2,1.0158146E1,1.9978561E0,5.159174E0,2.5063224E0,6.300483E-1,1.5437355E1,1.0010147E0,0E0,0E0,4.9670258E0,0E0,0E0,1.2207726E0,2.0192704E0,9.2606354E-1,7.165515E-1,0E0,0E0,0E0,0E0,6.8908653E0,5.644834E-1,0E0,1.8710494E-1,6.116237E0,0E0,0E0,0E0,0E0,0E0,0E0,8.915912E-1,9.587172E-1,1.3596458E0,5.0677285E0,0E0,0E0,0E0,0E0,0E0,0E0,0E0,0E0,0E0,0E0,0E0,0E0,0E0,0E0],"parents":[2147483647,0,0,1,1,2,2,3,3,4,4,5,5,6,6,7,7,8,8,9,9,10,10,11,11,12,12,13,13,14,14,17,17,20,20,21,21,22,22,23,23,28,28,29,29,31,31,32,32,39,39,40,40,41,41,42,42],"right_children":[2,4,6,8,10,12,14,16,18,20,22,24,26,28,30,-1,-1,32,-1,-1,34,36,38,40,-1,-1,-1,-1,42,44,-1,46,48,-1,-1,-1,-1,-1,-1,50,52,54,56,-1,-1,-1,-1,-1,-1,-1,-1,-1,-1,-1,-1,-1,-1],"split_conditions":[1E0,1.4E1,1E0,1E0,1E0,1.4E1,1.4E1,5.8E1,8E0,1E0,1E0,8E0,1E0,1E0,1E0,-3.5314712E-1,-1.4761983E-1,1E0,-3.2819307E-1,-3.3715412E-1,1E0,1.6E1,2.1E1,1.6E1,-3.2121608E-1,7.4834704E-2,4.09935E-1,-2.8071615E-1,6E0,2.3E1,5.6683844E-1,2.6E1,2E1,-1.9308816E-1,1.23408005E-1,1.740756E-1,-2.1507145E-1,1.0543104E-1,4.9991414E-1,1.2E1,2.4E1,1E0,1E0,3.4158984E-1,6.3897416E-2,-9.47305E-2,-2.7529183E-1,-2.1196628E-1,2.663438E-1,-8.163251E-2,2.01522E-1,-2.4547637E-1,6.160622E-2,1.4223509E-1,4.9103114E-1,-1.7784269E-1,2.5285515E-1],"split_indices":[5,11,3,2,4,11,11,10,11,8,3,11,1,8,0,0,0,3,0,0,2,11,10,10,0,0,0,0,11,10,0,10,10,0,0,0,0,0,0,10,10,6,1,0,0,0,0,0,0,0,0,0,0,0,0,0,0],"split_type":[0,0,0,0,0,0,0,0,0,0,0,0,0,0,0,0,0,0,0,0,0,0,0,0,0,0,0,0,0,0,0,0,0,0,0,0,0,0,0,0,0,0,0,0,0,0,0,0,0,0,0,0,0,0,0,0,0],"sum_hessian":[2.0956377E2,1.3366028E2,7.590349E1,1.0916761E2,2.4492662E1,1.3525052E1,6.2378437E1,7.3858246E1,3.5309364E1,1.2483005E1,1.2009658E1,1.0276992E1,3.2480602E0,4.1390972E1,2.0987467E1,7.185176E1,2.0064905E0,1.4398977E1,2.0910387E1,1.0036587E1,2.4464185E0,2.87989E0,9.129768E0,4.3881845E0,5.8888073E0,1.249254E0,1.9988064E0,3.1012635E0,3.8289707E1,2.9982095E0,1.7989258E1,5.0886583E0,9.310319E0,1.0174891E0,1.4289294E0,1.7503452E0,1.1295449E0,1.2337525E0,7.8960156E0,2.2379694E0,2.150215E0,2.1077602E1,1.7212105E1,1.249254E0,1.7489556E0,2.4496891E0,2.638969E0,2.63532E0,6.674999E0,1.1189847E0,1.1189847E0,1.0977615E0,1.0524534E0,2.1205761E0,1.8957026E1,2.1696012E0,1.5042503E1],"tree_param":{"num_deleted":"0","num_feature":"15","num_nodes":"57","size_leaf_vector":"1"}},{"base_weights":[-1.353155E-1,-8.969145E-1,5.4204047E-1,-1.0590143E0,-1.1177258E-1,-1.1784365E-1,9.1060436E-1,-3.2093894E-1,-1.101341E-1,-3.028272E-1,1.0396487E0,-5.211138E-1,7.097401E-1,6.9001013E-1,1.372081E0,-9.0866424E-2,3.9356968E-1,3.4306258E-2,-8.193528E-1,-1.892795E-2,1.0153253E0,-2.155894E-1,7.9245764E-1,4.336529E-1,1.5789539E-1,-7.036222E-1,5.333336E-1,-9.0783435E-1,5.1614504E-2,-1.4752822E-1,1.3204372E-1,1.0310383E-1,1.1561433E0,1.0912867E0,3.8644412E-1,-2.4927486E-1,-4.971292E-2,-9.687746E-2,2.5177154E-1,-3.0760813E-1,-1.513525E-1,3.922404E-1,1.04643464E-1,-4.861635E-2,3.4912533E-1,-1.2076059E-1,1.8674165E-1],"categories":[],"categories_nodes":[],"categories_segments":[],"categories_sizes":[],"default_left":[0,0,0,0,0,0,0,0,0,0,0,0,0,0,0,0,0,0,0,0,0,0,0,0,0,0,0,0,0,0,0,0,0,0,0,0,0,0,0,0,0,0,0,0,0,0,0],"id":2,"left_children":[1,3,5,7,9,11,13,-1,-1,-1,15,17,19,21,23,-1,-1,25,27,29,31,-1,33,-1,-1,35,37,39,-1,-1,-1,-1,41,43,45,-1,-1,-1,-1,-1,-1,-1,-1,-1,-1,-1,-1],"loss_changes":[9.710834E1,1.1150627E1,2.4368673E1,1.5390015E-1,1.7865944E1,1.2596256E1,5.580658E0,0E0,0E0,0E0,3.182598E0,4.2038307E0,2.7861414E0,7.12043E0,4.642563E-1,0E0,0E0,3.9718418E0,1.598464E0,1.2264879E0,4.3239975E-1,0E0,4.770218E0,0E0,0E0,1.616311E-1,1.9461741E0,2.057476E-1,0E0,0E0,0E0,0E0,3.7828064E-1,2.3775616E0,3.9174047E0,0E0,0E0,0E0,0E0,0E0,0E0,0E0,0E0,0E0,0E0,0E0,0E0],"parents":[2147483647,0,0,1,1,2,2,3,3,4,4,5,5,6,6,10,10,11,11,12,12,13,13,14,14,17,17,18,18,19,19,20,20,22,22,25,25,26,26,27,27,32,32,33,33,34,34],"right_children":[2,4,6,8,10,12,14,-1,-1,-1,16,18,20,22,24,-1,-1,26,28,30,32,-1,34,-1,-1,36,38,40,-1,-1,-1,-1,42,44,46,-1,-1,-1,-1,-1,-1,-1,-1,-1,-1,-1,-1],"split_conditions":[1E0,1.4E1,1E0,5.9E1,1E0,1.4E1,1.4E1,-3.2093894E-1,-1.101341E-1,-3.028272E-1,1E0,5E0,1E0,1E0,1E0,-9.0866424E-2,3.9356968E-1,1E0,5.1E1,1E0,2.3E1,-2.155894E-1,6E0,4.336529E-1,1.5789539E-1,4E0,2E1,3.1E1,5.1614504E-2,-1.4752822E-1,1.3204372E-1,1.0310383E-1,1.6E1,1.3E1,1E0,-2.4927486E-1,-4.971292E-2,-9.687746E-2,2.5177154E-1,-3.0760813E-1,-1.513525E-1,3.922404E-1,1.04643464E-1,-4.861635E-2,3.4912533E-1,-1.2076059E-1,1.8674165E-1],"split_indices":[8,11,5,10,3,11,11,0,0,0,4,11,3,9,13,0,0,3,10,4,10,0,11,0,0,11,10,10,0,0,0,0,11,10,7,0,0,0,0,0,0,0,0,0,0,0,0],"split_type":[0,0,0,0,0,0,0,0,0,0,0,0,0,0,0,0,0,0,0,0,0,0,0,0,0,0,0,0,0,0,0,0,0,0,0,0,0,0,0,0,0,0,0,0,0,0,0],"sum_hessian":[1.8629814E2,8.754311E1,9.875503E1,7.227289E1,1.52702265E1,3.5634525E1,6.31205E1,7.062612E1,1.6467664E0,8.649991E0,6.620235E0,2.4208416E1,1.1426108E1,4.439439E1,1.8726109E1,1.0971864E0,5.523049E0,8.766763E0,1.5441653E1,3.6531737E0,7.772935E0,2.6020377E0,4.1792355E1,1.657772E1,2.148388E0,3.3713892E0,5.3953733E0,1.4253808E1,1.187846E0,1.7645429E0,1.8886307E0,1.9435529E0,5.8293824E0,2.3101597E1,1.8690758E1,2.28577E0,1.0856192E0,1.4055259E0,3.9898474E0,9.843288E0,4.4105196E0,4.387504E0,1.4418781E0,1.1950871E0,2.190651E1,4.1414685E0,1.454929E1],"tree_param":{"num_deleted":"0","num_feature":"15","num_nodes":"47","size_leaf_vector":"1"}},{"base_weights":[-1.2162802E-1,-8.480606E-1,4.0146658E-1,-3.1474572E-1,-3.4050688E-1,-3.702435E-1,6.415779E-1,-6.5852964E-1,3.8183638E-1,-5.686701E-1,6.222877E-1,4.0370232E-1,1.0836177E0,9.3463436E-2,-2.8555715E-1,-1.7241171E-1,8.387122E-1,-6.9721445E-2,-9.038139E-1,-7.8805074E-2,2.9370803E-1,6.4701927E-1,-6.67765E-1,1.1495291E0,-6.313622E-2,-3.3592534E-1,2.0652579E-1,3.0089286E-1,8.50268E-2,-2.686383E-1,3.4368137E-1,-3.0342424E-1,-7.305179E-2,2.4961849E-1,7.78015E-1,-8.088333E-1,7.362066E-2,-1.3474181E-2,3.6299333E-1,4.893457E-2,-2.0859373E-1,-1.5118092E-1,2.2221448E-1,-1.3863027E-1,1.3076058E-1,1.3163473E-2,2.5807545E-1,-2.8445363E-1,-9.073876E-2],"categories":[],"categories_nodes":[],"categories_segments":[],"categories_sizes":[],"default_left":[0,0,0,0,0,0,0,0,0,0,0,0,0,0,0,0,0,0,0,0,0,0,0,0,0,0,0,0,0,0,0,0,0,0,0,0,0,0,0,0,0,0,0,0,0,0,0,0,0],"id":3,"left_children":[1,3,5,-1,7,9,11,13,15,17,19,21,23,25,-1,-1,27,29,31,-1,-1,33,35,37,-1,39,-1,-1,-1,-1,41,-1,-1,43,45,47,-1,-1,-1,-1,-1,-1,-1,-1,-1,-1,-1,-1,-1],"loss_changes":[6.269286E1,6.6866837E0,1.8039707E1,0E0,5.0904474E0,4.9688854E0,7.305929E0,3.396019E0,3.5726616E0,3.2899613E0,1.6404903E0,1.3329366E1,2.3888054E0,1.5386482E0,0E0,0E0,1.8938088E-1,3.4279315E0,5.9998226E-1,0E0,0E0,1.9309711E0,1.4412394E0,1.794796E0,0E0,7.670468E-1,0E0,0E0,0E0,0E0,2.6662695E0,0E0,0E0,1.7381592E0,1.7873478E0,3.192649E-1,0E0,0E0,0E0,0E0,0E0,0E0,0E0,0E0,0E0,0E0,0E0,0E0,0E0],"parents":[2147483647,0,0,1,1,2,2,4,4,5,5,6,6,7,7,8,8,9,9,10,10,11,11,12,12,13,13,16,16,17,17,18,18,21,21,22,22,23,23,25,25,30,30,33,33,34,34,35,35],"right_children":[2,4,6,-1,8,10,12,14,16,18,20,22,24,26,-1,-1,28,30,32,-1,-1,34,36,38,-1,40,-1,-1,-1,-1,42,-1,-1,44,46,48,-1,-1,-1,-1,-1,-1,-1,-1,-1,-1,-1,-1,-1],"split_conditions":[1E0,1E0,1E0,-3.1474572E-1,1.4E1,1.4E1,1.4E1,2E1,1E0,8E0,1E0,1E1,5.4E1,1E0,-2.8555715E-1,-1.7241171E-1,3.2E1,2E1,1E0,-7.8805074E-2,2.9370803E-1,2E1,4.3E1,1.8E1,-6.313622E-2,1E0,2.0652579E-1,3.0089286E-1,8.50268E-2,-2.686383E-1,1E0,-3.0342424E-1,-7.305179E-2,1E0,1E0,1E0,7.362066E-2,-1.3474181E-2,3.6299333E-1,4.893457E-2,-2.0859373E-1,-1.5118092E-1,2.2221448E-1,-1.3863027E-1,1.3076058E-1,1.3163473E-2,2.5807545E-1,-2.8445363E-1,-9.073876E-2],"split_indices":[3,8,4,0,11,11,11,10,4,11,8,11,10,4,0,0,10,10,5,0,0,10,10,10,0,1,0,0,0,0,1,0,0,5,6,5,0,0,0,0,0,0,0,0,0,0,0,0,0],"split_type":[0,0,0,0,0,0,0,0,0,0,0,0,0,0,0,0,0,0,0,0,0,0,0,0,0,0,0,0,0,0,0,0,0,0,0,0,0,0,0,0,0,0,0,0,0,0,0,0,0],"sum_hessian":[1.6308826E2,6.801422E1,9.5074036E1,4.7949608E1,2.0064615E1,2.2433035E1,7.264101E1,1.3992531E1,6.072085E0,1.9051346E1,3.3816895E0,4.8470673E1,2.4170334E1,4.117644E0,9.874887E0,1.8793869E0,4.192698E0,8.140351E0,1.0910994E1,1.0472944E0,2.334395E0,3.9823406E1,8.6472645E0,2.3105204E1,1.0651305E0,2.6444683E0,1.4731756E0,2.6133912E0,1.5793067E0,2.3267593E0,5.8135924E0,8.924908E0,1.9860852E0,1.0593011E1,2.9230394E1,7.5891323E0,1.0581324E0,1.1253662E0,2.1979837E1,1.3357671E0,1.308701E0,1.7685981E0,4.0449944E0,1.8899287E0,8.703082E0,3.0989742E0,2.613142E1,5.2671843E0,2.3219478E0],"tree_param":{"num_deleted":"0","num_feature":"15","num_nodes":"49","size_leaf_vector":"1"}},{"base_weights":[-1.1367027E-1,-7.4210894E-1,3.323195E-1,-9.5267737E-1,-2.9913178E-1,8.545834E-2,8.547299E-1,-1.04108706E-1,-9.721923E-1,-2.8136504E-1,4.2755812E-2,3.802394E-1,-7.7149004E-1,2.3557264E-2,9.7355366E-1,-2.9774183E-1,-1.1856073E-1,-3.8712838E-1,5.7075846E-1,-3.0146414E-1,4.7319338E-1,-8.9817965E-1,4.6300016E-2,-1.7580816E-1,1.7012148E-1,-1.13132885E-2,1.0258197E0,2.350015E-1,-6.6736794E-1,4.480262E-2,2.8350356E-1,2.5089833E-1,-2.026124E-1,6.7912316E-1,2.6351073E-1,-2.8344813E-1,-7.459368E-2,1.1320232E0,6.789142E-1,-2.9374447E-1,-3.456716E-2,1.1526325E-1,-1.1968125E-1,-7.495665E-2,1.9454566E-1,6.579384E-2,2.3387818E-1,1.6670415E-2,1.6411556E-1,3.537688E-1,6.5399684E-2,4.7563734E-3,2.6945165E-1],"categories":[],"categories_nodes":[],"categories_segments":[],"categories_sizes":[],"default_left":[0,0,0,0,0,0,0,0,0,0,0,0,0,0,0,0,0,0,0,0,0,0,0,0,0,0,0,0,0,0,0,0,0,0,0,0,0,0,0,0,0,0,0,0,0,0,0,0,0,0,0,0,0],"id":4,"left_children":[1,3,5,7,9,11,13,-1,15,-1,17,19,21,23,25,-1,-1,27,29,31,33,35,-1,-1,-1,-1,37,-1,39,41,-1,43,-1,45,47,-1,-1,49,51,-1,-1,-1,-1,-1,-1,-1,-1,-1,-1,-1,-1,-1,-1],"loss_changes":[4.0551632E1,5.311802E0,1.0863322E1,1.3788986E-1,4.5802193E0,1.512174E1,2.6537628E0,0E0,5.7128906E-2,0E0,3.5117455E0,2.9527254E0,1.9395542E0,1.7949861E0,1.2906837E0,0E0,0E0,3.3395567E0,1.3179648E0,1.3946264E0,1.5229311E0,1.7873764E-1,0E0,0E0,0E0,0E0,6.2582016E-2,0E0,1.172873E0,7.4408805E-1,0E0,7.8394413E-1,0E0,7.1836567E-1,1.2173797E0,0E0,0E0,4.2349243E-1,1.1176817E0,0E0,0E0,0E0,0E0,0E0,0E0,0E0,0E0,0E0,0E0,0E0,0E0,0E0,0E0],"parents":[2147483647,0,0,1,1,2,2,3,3,4,4,5,5,6,6,8,8,10,10,11,11,12,12,13,13,14,14,17,17,18,18,19,19,20,20,21,21,26,26,28,28,29,29,31,31,33,33,34,34,37,37,38,38],"right_children":[2,4,6,8,10,12,14,-1,16,-1,18,20,22,24,26,-1,-1,28,30,32,34,36,-1,-1,-1,-1,38,-1,40,42,-1,44,-1,46,48,-1,-1,50,52,-1,-1,-1,-1,-1,-1,-1,-1,-1,-1,-1,-1,-1,-1],"split_conditions":[1E0,1E0,1.4E1,1E0,1E0,9E0,1E0,-1.04108706E-1,1E0,-2.8136504E-1,1E0,1E0,4.3E1,1E0,1.8E1,-2.9774183E-1,-1.1856073E-1,4E0,7E0,1.8E1,5E0,1E0,4.6300016E-2,-1.7580816E-1,1.7012148E-1,-1.13132885E-2,1.6E1,2.350015E-1,1E0,5E0,2.8350356E-1,1.5E1,-2.026124E-1,1E0,3.1E1,-2.8344813E-1,-7.459368E-2,4.8E1,1E0,-2.9374447E-1,-3.456716E-2,1.1526325E-1,-1.1968125E-1,-7.495665E-2,1.9454566E-1,6.579384E-2,2.3387818E-1,1.6670415E-2,1.6411556E-1,3.537688E-1,6.5399684E-2,4.7563734E-3,2.6945165E-1],"split_indices":[4,8,11,11,7,11,0,0,12,0,6,3,10,6,10,0,0,14,11,10,11,13,0,0,0,0,11,0,5,11,0,10,0,7,10,0,0,10,5,0,0,0,0,0,0,0,0,0,0,0,0,0,0],"split_type":[0,0,0,0,0,0,0,0,0,0,0,0,0,0,0,0,0,0,0,0,0,0,0,0,0,0,0,0,0,0,0,0,0,0,0,0,0,0,0,0,0,0,0,0,0,0,0,0,0,0,0,0,0],"sum_hessian":[1.4280411E2,5.9001648E1,8.380245E1,3.9211773E1,1.9789873E1,5.7700226E1,2.610223E1,1.8103386E0,3.7401436E1,6.2917295E0,1.3498144E1,4.3345966E1,1.435426E1,3.4146936E0,2.2687536E1,3.5435825E1,1.9656117E0,7.587462E0,5.910682E0,4.932076E0,3.8413887E1,1.2652721E1,1.7015388E0,1.5726511E0,1.8420426E0,1.1286392E0,2.1558897E1,1.1189088E0,6.4685535E0,2.9228191E0,2.987863E0,2.1237442E0,2.8083317E0,1.8250862E1,2.0163025E1,1.138077E1,1.2719516E0,1.4773003E1,6.785895E0,3.6398664E0,2.828687E0,1.7321129E0,1.1907063E0,1.1043749E0,1.0193695E0,3.8435361E0,1.4407327E1,1.2322188E1,7.8408375E0,1.37716E1,1.0014031E0,1.9527823E0,4.8331127E0],"tree_param":{"num_deleted":"0","num_feature":"15","num_nodes":"53","size_leaf_vector":"1"}},{"base_weights":[-9.907649E-2,-7.141329E-1,2.595228E-1,-2.8491977E-1,-2.547021E-1,6.404229E-2,7.7561694E-1,-6.196064E-1,1.1696556E-1,2.9838362E-1,-6.454683E-1,1.24399684E-1,8.659966E-1,-2.7639848E-1,-2.4009192E-1,-2.6061445E-1,4.8912463E-1,-6.358234E-2,4.2795485E-1,-2.889707E-1,-8.9698255E-2,1.4993435E-1,-8.2517505E-2,5.114026E-1,3.1642815E-1,-5.169928E-1,4.7737796E-2,7.176858E-2,-5.168623E-1,5.7377215E-2,2.5167003E-1,-2.3426573E-1,1.2025308E-1,6.3877285E-1,1.3479584E-1,-5.0065464E-1,5.2883005E-1,-4.0322583E-2,6.165697E-1,-3.202014E-2,-1.9562905E-1,-2.0477508E-1,-2.3793852E-2,1.4064533E-1,-1.00156605E-1,1.2394353E-1,-8.500427E-2,4.9654387E-2,2.521006E-1,-9.947243E-2,2.3729472E-1,-2.1014495E-1,-5.760061E-2,2.111423E-1,2.55205E-2,2.0968524E-1,5.7728957E-2],"categories":[],"categories_nodes":[],"categories_segments":[],"categories_sizes":[],"default_left":[0,0,0,0,0,0,0,0,0,0,0,0,0,0,0,0,0,0,0,0,0,0,0,0,0,0,0,0,0,0,0,0,0,0,0,0,0,0,0,0,0,0,0,0,0,0,0,0,0,0,0,0,0,0,0,0,0],"id":5,"left_children":[1,3,5,-1,7,9,11,13,15,17,19,21,23,-1,25,27,29,31,33,-1,35,-1,-1,37,-1,39,-1,-1,41,43,-1,-1,45,47,49,51,53,-1,55,-1,-1,-1,-1,-1,-1,-1,-1,-1,-1,-1,-1,-1,-1,-1,-1,-1,-1],"loss_changes":[2.8258018E1,4.86104E0,8.135828E0,0E0,2.4251528E0,1.0158115E1,1.1988487E0,7.992945E-1,1.4532994E0,2.1724005E0,2.5975285E0,7.1825325E-1,7.5417423E-1,0E0,6.6810554E-1,8.07085E-1,7.219342E-1,1.7986264E0,2.003559E0,0E0,1.9502878E0,0E0,0E0,6.7071104E-1,0E0,1.1688727E-1,0E0,0E0,2.2458684E-1,6.966708E-1,0E0,0E0,1.4359444E0,1.7115412E0,4.9784822E0,1.4291239E-1,1.8342626E-1,0E0,1.3182282E-1,0E0,0E0,0E0,0E0,0E0,0E0,0E0,0E0,0E0,0E0,0E0,0E0,0E0,0E0,0E0,0E0,0E0,0E0],"parents":[2147483647,0,0,1,1,2,2,4,4,5,5,6,6,7,7,8,8,9,9,10,10,11,11,12,12,14,14,15,15,16,16,17,17,18,18,20,20,23,23,25,25,28,28,29,29,32,32,33,33,34,34,35,35,36,36,38,38],"right_children":[2,4,6,-1,8,10,12,14,16,18,20,22,24,-1,26,28,30,32,34,-1,36,-1,-1,38,-1,40,-1,-1,42,44,-1,-1,46,48,50,52,54,-1,56,-1,-1,-1,-1,-1,-1,-1,-1,-1,-1,-1,-1,-1,-1,-1,-1,-1,-1],"split_conditions":[1E0,1E0,1.4E1,-2.8491977E-1,1E0,9E0,1E0,1E0,1E0,2E1,1E0,2.6E1,1E0,-2.7639848E-1,1E0,2.1E1,1.3E1,1E0,3.6E1,-2.889707E-1,3.4E1,1.4993435E-1,-8.2517505E-2,1.9E1,3.1642815E-1,1.1E1,4.7737796E-2,7.176858E-2,1.4E1,2E1,2.5167003E-1,-2.3426573E-1,1.7E1,1E0,1E0,1E0,4.4E1,-4.0322583E-2,1.6E1,-3.202014E-2,-1.9562905E-1,-2.0477508E-1,-2.3793852E-2,1.4064533E-1,-1.00156605E-1,1.2394353E-1,-8.500427E-2,4.9654387E-2,2.521006E-1,-9.947243E-2,2.3729472E-1,-2.1014495E-1,-5.760061E-2,2.111423E-1,2.55205E-2,2.0968524E-1,5.7728957E-2],"split_indices":[3,8,11,0,4,11,0,7,5,10,8,10,5,0,2,10,11,4,10,0,10,0,0,10,0,11,0,0,11,10,0,0,10,7,12,2,10,0,11,0,0,0,0,0,0,0,0,0,0,0,0,0,0,0,0,0,0],"split_type":[0,0,0,0,0,0,0,0,0,0,0,0,0,0,0,0,0,0,0,0,0,0,0,0,0,0,0,0,0,0,0,0,0,0,0,0,0,0,0,0,0,0,0,0,0,0,0,0,0,0,0,0,0,0,0,0,0],"sum_hessian":[1.26279816E2,4.6143944E1,8.0135864E1,2.9796753E1,1.634719E1,5.8936596E1,2.119927E1,7.9120364E0,8.435155E0,4.4739292E1,1.4197306E1,2.8732088E0,1.8326061E1,3.6124299E0,4.2996063E0,4.3358603E0,4.0992947E0,1.1927711E1,3.281158E1,8.566286E0,5.631019E0,1.351768E0,1.5214407E0,7.655111E0,1.0670951E1,2.3645327E0,1.9350739E0,1.4919821E0,2.8438783E0,2.3556383E0,1.7436563E0,1.7707431E0,1.0156967E1,1.8400436E1,1.4411144E1,3.49769E0,2.1333292E0,1.0330852E0,6.6220255E0,1.0292149E0,1.3353179E0,1.6564755E0,1.1874027E0,1.0515081E0,1.3041303E0,5.872013E0,4.284954E0,6.039996E0,1.2360441E1,8.713151E0,5.697993E0,1.3525392E0,2.1451507E0,1.1097466E0,1.0235826E0,5.002467E0,1.6195585E0],"tree_param":{"num_deleted":"0","num_feature":"15","num_nodes":"57","size_leaf_vector":"1"}},{"base_weights":[-8.663641E-2,-6.422619E-1,2.1094066E-1,-8.2503873E-1,5.102756E-2,5.206406E-2,6.685141E-1,-2.854831E-1,-4.122768E-1,-4.835027E-1,6.401896E-1,-6.9169927E-1,1.519491E-1,7.7211314E-1,-7.308604E-2,9.9666886E-2,-5.496148E-1,-2.2532517E-1,6.707922E-2,3.861594E-2,2.5218812E-1,-5.423286E-2,-2.561971E-1,-5.2207726E-1,2.2757873E-1,2.617801E-1,8.6975706E-1,-7.5163656E-1,3.4515206E-2,5.582342E-2,-2.3965192E-1,-2.1676251E-1,3.0413878E-1,-1.2416317E-1,2.6856235E-1,2.7066115E-1,7.548353E-2,-2.6212725E-1,-2.0747852E-2,-7.474245E-2,8.867477E-2,-2.0802844E-1,-4.8022736E-3,8.908752E-3,1.1294533E-1],"categories":[],"categories_nodes":[],"categories_segments":[],"categories_sizes":[],"default_left":[0,0,0,0,0,0,0,0,0,0,0,0,0,0,0,0,0,0,0,0,0,0,0,0,0,0,0,0,0,0,0,0,0,0,0,0,0,0,0,0,0,0,0,0,0],"id":6,"left_children":[1,3,5,7,9,11,13,-1,15,17,19,21,23,25,-1,-1,27,-1,-1,-1,-1,-1,-1,29,31,33,35,37,39,-1,-1,41,43,-1,-1,-1,-1,-1,-1,-1,-1,-1,-1,-1,-1],"loss_changes":[1.8935911E1,5.098812E0,5.4030743E0,1.2605686E0,3.2280605E0,4.3105073E0,2.0018578E0,0E0,1.1221823E0,1.1950845E0,3.8784552E-1,4.1628027E-1,2.704595E0,6.4316654E-1,0E0,0E0,9.859166E-1,0E0,0E0,0E0,0E0,0E0,0E0,1.2111168E0,1.6411345E0,2.1839948E0,5.857849E-2,4.4700122E-1,2.992505E-1,0E0,0E0,6.960196E-1,7.8131485E-1,0E0,0E0,0E0,0E0,0E0,0E0,0E0,0E0,0E0,0E0,0E0,0E0],"parents":[2147483647,0,0,1,1,2,2,3,3,4,4,5,5,6,6,8,8,9,9,10,10,11,11,12,12,13,13,16,16,23,23,24,24,25,25,26,26,27,27,28,28,31,31,32,32],"right_children":[2,4,6,8,10,12,14,-1,16,18,20,22,24,26,-1,-1,28,-1,-1,-1,-1,-1,-1,30,32,34,36,38,40,-1,-1,42,44,-1,-1,-1,-1,-1,-1,-1,-1,-1,-1,-1,-1],"split_conditions":[1E0,1E0,1.4E1,1E0,1E0,1E0,4.5E1,-2.854831E-1,3E0,1E0,1.4E1,8E0,1E0,1E0,-7.308604E-2,9.9666886E-2,1.4E1,-2.2532517E-1,6.707922E-2,3.861594E-2,2.5218812E-1,-5.423286E-2,-2.561971E-1,6E0,1E0,1E0,5E0,3.2E1,2.1E1,5.582342E-2,-2.3965192E-1,1.9E1,1E0,-1.2416317E-1,2.6856235E-1,2.7066115E-1,7.548353E-2,-2.6212725E-1,-2.0747852E-2,-7.474245E-2,8.867477E-2,-2.0802844E-1,-4.8022736E-3,8.908752E-3,1.1294533E-1],"split_indices":[2,5,11,3,6,9,10,0,11,13,11,11,8,4,0,0,11,0,0,0,0,0,0,11,4,6,14,10,10,0,0,10,5,0,0,0,0,0,0,0,0,0,0,0,0],"split_type":[0,0,0,0,0,0,0,0,0,0,0,0,0,0,0,0,0,0,0,0,0,0,0,0,0,0,0,0,0,0,0,0,0,0,0,0,0,0,0,0,0,0,0,0,0],"sum_hessian":[1.1270673E2,3.890548E1,7.3801254E1,3.0638103E1,8.267375E0,5.560732E1,1.8193941E1,2.244881E1,8.189294E0,4.428688E0,3.8386867E0,5.882219E0,4.9725098E1,1.6476114E1,1.7178272E0,1.0544071E0,7.1348867E0,3.1677454E0,1.2609427E0,1.5431417E0,2.295545E0,1.9276162E0,3.9546025E0,4.4210196E0,4.5304077E1,3.2373202E0,1.3238793E1,5.0883236E0,2.0465631E0,1.334382E0,3.0866373E0,6.389464E0,3.8914616E1,1.7341566E0,1.5031635E0,1.2141926E1,1.0968676E0,4.0782895E0,1.0100341E0,1.0027401E0,1.0438229E0,1.1662523E0,5.223212E0,8.412457E0,3.0502157E1],"tree_param":{"num_deleted":"0","num_feature":"15","num_nodes":"45","size_leaf_vector":"1"}},{"base_weights":[-7.903088E-2,-5.871996E-1,1.6027951E-1,-8.304048E-1,-1.5479419E-1,2.2764899E-2,5.7172996E-1,-9.0534353E-1,-1.5082952E-1,7.918173E-2,-2.2207704E-1,1.6495329E-1,-5.103779E-1,6.5820426E-1,-4.0345907E-2,-3.6061272E-2,-2.8926617E-1,-5.8117185E-2,-8.16566E-3,-2.2775604E-1,2.2043358E-1,-1.10611275E-1,2.6377085E-1,-2.6497775E-1,-4.126852E-2,1.1602167E-2,7.215564E-1,4.981105E-2,-6.9613054E-2,-2.060385E-1,2.6275393E-2,-1.9890158E-1,1.956171E-2,2.7334282E-1,1.9303204E-1,-3.4793672E-1,1.7398153E-1,2.696466E-1,2.8026018E-1,8.58821E-2,-1.6955025E-1,7.525038E-2,-8.384512E-2,-6.845685E-2,8.165476E-2,-2.0238584E-1,-2.7488422E-4,-8.862889E-2,1.7109373E-1],"categories":[],"categories_nodes":[],"categories_segments":[],"categories_sizes":[],"default_left":[0,0,0,0,0,0,0,0,0,0,0,0,0,0,0,0,0,0,0,0,0,0,0,0,0,0,0,0,0,0,0,0,0,0,0,0,0,0,0,0,0,0,0,0,0,0,0,0,0],"id":7,"left_children":[1,3,5,7,9,11,13,15,17,19,-1,21,23,25,27,-1,-1,-1,-1,29,-1,31,33,-1,35,-1,37,-1,-1,-1,39,-1,41,-1,43,45,-1,-1,47,-1,-1,-1,-1,-1,-1,-1,-1,-1,-1],"loss_changes":[1.26119E1,3.3596582E0,3.9908686E0,9.3290234E-1,1.86261E0,4.183782E0,9.62595E-1,7.492008E-1,1.2148157E-2,2.242501E0,0E0,1.2123208E0,1.9979804E0,5.825434E-1,1.6241847E-1,0E0,0E0,0E0,0E0,9.261316E-1,0E0,8.8828063E-1,1.3021863E0,0E0,1.382844E0,0E0,8.474822E-1,0E0,0E0,0E0,1.0807868E0,0E0,8.1861424E-1,0E0,1.0744944E0,5.407764E-1,0E0,0E0,1.0836376E0,0E0,0E0,0E0,0E0,0E0,0E0,0E0,0E0,0E0,0E0],"parents":[2147483647,0,0,1,1,2,2,3,3,4,4,5,5,6,6,7,7,8,8,9,9,11,11,12,12,13,13,14,14,19,19,21,21,22,22,24,24,26,26,30,30,32,32,34,34,35,35,38,38],"right_children":[2,4,6,8,10,12,14,16,18,20,-1,22,24,26,28,-1,-1,-1,-1,30,-1,32,34,-1,36,-1,38,-1,-1,-1,40,-1,42,-1,44,46,-1,-1,48,-1,-1,-1,-1,-1,-1,-1,-1,-1,-1],"split_conditions":[1E0,1E0,1.4E1,1E0,3E1,9E0,4.5E1,3E0,2.7E1,2.4E1,-2.2207704E-1,2E1,1E0,1.8E1,1E0,-3.6061272E-2,-2.8926617E-1,-5.8117185E-2,-8.16566E-3,1E0,2.2043358E-1,1E0,1E0,-2.6497775E-1,4.3E1,1.1602167E-2,1.6E1,4.981105E-2,-6.9613054E-2,-2.060385E-1,2.1E1,-1.9890158E-1,1.7E1,2.7334282E-1,1E0,1E0,1.7398153E-1,2.696466E-1,1E0,8.58821E-2,-1.6955025E-1,7.525038E-2,-8.384512E-2,-6.845685E-2,8.165476E-2,-2.0238584E-1,-2.7488422E-4,-8.862889E-2,1.7109373E-1],"split_indices":[3,2,11,13,10,11,10,14,10,10,0,10,8,10,12,0,0,0,0,8,0,4,8,0,10,0,11,0,0,0,10,0,10,0,6,7,0,0,6,0,0,0,0,0,0,0,0,0,0],"split_type":[0,0,0,0,0,0,0,0,0,0,0,0,0,0,0,0,0,0,0,0,0,0,0,0,0,0,0,0,0,0,0,0,0,0,0,0,0,0,0,0,0,0,0,0,0,0,0,0,0],"sum_hessian":[1.019338E2,3.2169365E1,6.9764435E1,1.9999992E1,1.2169372E1,5.307956E1,1.6684875E1,1.7714361E1,2.285632E0,9.312466E0,2.8569062E0,4.244906E1,1.0630499E1,1.4553403E1,2.1314728E0,1.4478981E0,1.6266462E1,1.275728E0,1.0099039E0,6.7873545E0,2.525111E0,1.1172859E1,3.1276201E1,5.43084E0,5.1996584E0,1.499549E0,1.3053854E1,1.0908828E0,1.0405902E0,1.8110944E0,4.97626E0,1.3501563E0,9.822702E0,1.9106207E0,2.936558E1,3.7756524E0,1.4240059E0,8.573258E0,4.480595E0,3.8151114E0,1.1611487E0,5.6299114E0,4.192791E0,4.3472877E0,2.5018291E1,1.4585496E0,2.3171027E0,1.4949363E0,2.985659E0],"tree_param":{"num_deleted":"0","num_feature":"15","num_nodes":"49","size_leaf_vector":"1"}},{"base_weights":[-7.258969E-2,-4.004605E-1,2.2952461E-1,-7.2178316E-1,-1.0438453E-1,8.556339E-2,6.964406E-1,-8.5489976E-1,-3.7757447E-1,3.406056E-1,-1.7819226E-1,-2.2911872E-1,1.6139561E-1,-2.7235688E-3,8.710964E-1,-6.230201E-2,-8.9569813E-1,6.2053706E-2,-5.1294655E-1,-3.544672E-2,1.9699521E-1,-3.32915E-1,1.5432212E-1,-2.5741845E-1,2.6910114E-1,4.5479846E-1,3.0054483E-1,-2.8722766E-1,-8.788763E-2,-2.3220436E-1,-1.3321342E-1,-1.0524272E-1,-2.4936621E-1,1.5017031E-1,-1.4005812E-1,1.7298803E-1,-5.469032E-1,3.4596288E-1,-3.7631315E-1,1.6209696E-1,3.547659E-2,-9.965261E-2,4.4875138E-2,1.287134E-1,-1.04622506E-1,-1.4191215E-1,4.4164322E-2,1.2527078E-1,-5.7544958E-2,-3.1730062E-1,9.279081E-2,-5.4731805E-2,1.2572841E-1,-2.2439562E-1,6.9054626E-2],"categories":[],"categories_nodes":[],"categories_segments":[],"categories_sizes":[],"default_left":[0,0,0,0,0,0,0,0,0,0,0,0,0,0,0,0,0,0,0,0,0,0,0,0,0,0,0,0,0,0,0,0,0,0,0,0,0,0,0,0,0,0,0,0,0,0,0,0,0,0,0,0,0,0,0],"id":8,"left_children":[1,3,5,7,9,11,13,15,17,19,21,-1,23,-1,25,-1,27,-1,29,-1,-1,31,33,35,37,39,-1,-1,-1,-1,41,43,-1,-1,45,47,49,51,53,-1,-1,-1,-1,-1,-1,-1,-1,-1,-1,-1,-1,-1,-1,-1,-1],"loss_changes":[9.544018E0,4.312831E0,3.3213289E0,6.8298244E-1,8.8752747E-1,2.6726625E0,1.4512582E0,2.1107578E-1,7.3209846E-1,6.466716E-1,1.1960733E0,0E0,1.745753E0,0E0,5.5870533E-2,0E0,2.3460102E-1,0E0,5.622755E-1,0E0,0E0,1.6711231E0,8.599191E-1,1.1055442E0,1.6209874E0,5.3467155E-2,0E0,0E0,0E0,0E0,2.7150738E-1,1.6828077E0,0E0,0E0,5.4499495E-1,4.3899366E-1,2.5536683E0,1.1343031E0,1.0010276E0,0E0,0E0,0E0,0E0,0E0,0E0,0E0,0E0,0E0,0E0,0E0,0E0,0E0,0E0,0E0,0E0],"parents":[2147483647,0,0,1,1,2,2,3,3,4,4,5,5,6,6,7,7,8,8,9,9,10,10,12,12,14,14,16,16,18,18,21,21,22,22,23,23,24,24,25,25,30,30,31,31,34,34,35,35,36,36,37,37,38,38],"right_children":[2,4,6,8,10,12,14,16,18,20,22,-1,24,-1,26,-1,28,-1,30,-1,-1,32,34,36,38,40,-1,-1,-1,-1,42,44,-1,-1,46,48,50,52,54,-1,-1,-1,-1,-1,-1,-1,-1,-1,-1,-1,-1,-1,-1,-1,-1],"split_conditions":[1E0,1E0,1.4E1,1E0,4E0,1E0,1E0,3E0,3E0,2.9E1,1.4E1,-2.2911872E-1,1E0,-2.7235688E-3,1E0,-6.230201E-2,1E0,6.2053706E-2,1E0,-3.544672E-2,1.9699521E-1,1.1E1,1.5E1,6E0,5.5E1,1.6E1,3.0054483E-1,-2.8722766E-1,-8.788763E-2,-2.3220436E-1,1.4E1,1E0,-2.4936621E-1,1.5017031E-1,2.3E1,1E0,1E0,1.3E1,6.1E1,1.6209696E-1,3.547659E-2,-9.965261E-2,4.4875138E-2,1.287134E-1,-1.04622506E-1,-1.4191215E-1,4.4164322E-2,1.2527078E-1,-5.7544958E-2,-3.1730062E-1,9.279081E-2,-5.4731805E-2,1.2572841E-1,-2.2439562E-1,6.9054626E-2],"split_indices":[5,2,11,3,11,8,0,14,11,10,11,0,7,0,6,0,13,0,6,0,0,11,11,11,10,11,0,0,0,0,11,1,0,0,10,12,12,10,10,0,0,0,0,0,0,0,0,0,0,0,0,0,0,0,0],"split_type":[0,0,0,0,0,0,0,0,0,0,0,0,0,0,0,0,0,0,0,0,0,0,0,0,0,0,0,0,0,0,0,0,0,0,0,0,0,0,0,0,0,0,0,0,0,0,0,0,0,0,0,0,0,0,0],"sum_hessian":[9.442329E1,4.5125317E1,4.929797E1,2.095051E1,2.4174809E1,3.858466E1,1.0713309E1,1.4037924E1,6.9125857E0,2.925012E0,2.1249796E1,2.4192023E0,3.616546E1,2.313993E0,8.399316E0,1.1935554E0,1.2844368E1,1.2007599E0,5.711826E0,1.4485233E0,1.4764888E0,1.4501076E1,6.7487206E0,7.113709E0,2.905175E1,3.0775497E0,5.3217664E0,1.1117366E1,1.7270027E0,2.7694838E0,2.9423423E0,1.0784785E1,3.7162898E0,2.7793174E0,3.9694033E0,3.0224106E0,4.091298E0,2.6374773E1,2.6769772E0,1.9711242E0,1.1064255E0,1.6246874E0,1.3176548E0,3.1378005E0,7.646985E0,1.5389358E0,2.4304676E0,1.7227583E0,1.2996525E0,2.4152157E0,1.6760825E0,3.0248127E0,2.334996E1,1.5151637E0,1.1618135E0],"tree_param":{"num_deleted":"0","num_feature":"15","num_nodes":"55","size_leaf_vector":"1"}},{"base_weights":[-6.7132056E-2,-4.4856766E-1,1.2140982E-1,-6.9418377E-1,-1.7041811E-1,6.889476E-3,4.3224463E-1,-2.741151E-1,-3.9179277E-1,1.7141965E-1,-3.1245968E-1,-6.3681734E-1,9.20213E-2,5.232653E-1,-5.4990087E-2,1.1000265E-1,-6.585662E-1,-5.7223827E-1,3.4651168E-2,-2.059448E-2,-2.540795E-1,2.6985532E-1,-4.10763E-2,2.1564835E-1,7.61175E-1,-2.4657403E-1,-1.49326585E-2,-7.2346026E-1,-1.2075284E-2,-1.9657825E-1,3.010175E-1,4.6352604E-1,-1.2737474E-1,-1.4581819E-1,5.0637835E-1,-1.1643235E-1,4.3801317E-1,8.5303664E-1,3.572784E-2,-5.1257055E-2,-2.4570657E-1,1.926496E-1,-2.607603E-2,-7.4307196E-2,1.675941E-1,-2.9509464E-1,1.1257215E-1,-5.51887E-4,-3.0943978E-1,-3.1831402E-2,2.3354873E-1,1.5779175E-1,1.7590176E-2,5.5916913E-2,2.8647006E-1],"categories":[],"categories_nodes":[],"categories_segments":[],"categories_sizes":[],"default_left":[0,0,0,0,0,0,0,0,0,0,0,0,0,0,0,0,0,0,0,0,0,0,0,0,0,0,0,0,0,0,0,0,0,0,0,0,0,0,0,0,0,0,0,0,0,0,0,0,0,0,0,0,0,0,0],"id":9,"left_children":[1,3,5,7,9,11,13,-1,15,-1,17,19,21,23,-1,-1,25,27,29,-1,-1,31,33,35,37,-1,-1,39,-1,-1,41,43,45,47,49,-1,51,53,-1,-1,-1,-1,-1,-1,-1,-1,-1,-1,-1,-1,-1,-1,-1,-1,-1],"loss_changes":[6.4193516E0,1.8963304E0,2.1333625E0,6.600237E-1,1.7753028E0,2.517634E0,1.0002997E0,0E0,1.9008466E0,0E0,1.2249926E0,5.8264947E-1,9.698157E-1,8.840003E-1,0E0,0E0,5.979831E-1,5.9043694E-1,1.4218571E0,0E0,0E0,1.4031042E0,1.4520097E0,1.195861E0,3.5143518E-1,0E0,0E0,1.7362523E-1,0E0,0E0,7.827689E-1,9.4750047E-1,3.1711097E0,2.669652E0,7.631848E-1,0E0,1.711899E-1,2.6728725E-1,0E0,0E0,0E0,0E0,0E0,0E0,0E0,0E0,0E0,0E0,0E0,0E0,0E0,0E0,0E0,0E0,0E0],"parents":[2147483647,0,0,1,1,2,2,3,3,4,4,5,5,6,6,8,8,10,10,11,11,12,12,13,13,16,16,17,17,18,18,21,21,22,22,23,23,24,24,27,27,30,30,31,31,32,32,33,33,34,34,36,36,37,37],"right_children":[2,4,6,8,10,12,14,-1,16,-1,18,20,22,24,-1,-1,26,28,30,-1,-1,32,34,36,38,-1,-1,40,-1,-1,42,44,46,48,50,-1,52,54,-1,-1,-1,-1,-1,-1,-1,-1,-1,-1,-1,-1,-1,-1,-1,-1,-1],"split_conditions":[1E0,1E0,1.4E1,1E0,4E0,1E0,4.5E1,-2.741151E-1,8E0,1.7141965E-1,1E0,6E0,5E0,1E0,-5.4990087E-2,1.1000265E-1,1.3E1,3.1E1,1E0,-2.059448E-2,-2.540795E-1,3.7E1,4.9E1,2E1,3.6E1,-2.4657403E-1,-1.49326585E-2,1.8E1,-1.2075284E-2,-1.9657825E-1,2.6E1,1.1E1,4.3E1,4.4E1,6E0,-1.1643235E-1,1.6E1,1E0,3.572784E-2,-5.1257055E-2,-2.4570657E-1,1.926496E-1,-2.607603E-2,-7.4307196E-2,1.675941E-1,-2.9509464E-1,1.1257215E-1,-5.51887E-4,-3.0943978E-1,-3.1831402E-2,2.3354873E-1,1.5779175E-1,1.7590176E-2,5.5916913E-2,2.8647006E-1],"split_indices":[4,8,11,0,14,2,10,0,11,0,6,11,11,5,0,0,11,10,7,0,0,10,10,10,10,0,0,10,0,0,10,10,10,10,11,0,11,2,0,0,0,0,0,0,0,0,0,0,0,0,0,0,0,0,0],"split_type":[0,0,0,0,0,0,0,0,0,0,0,0,0,0,0,0,0,0,0,0,0,0,0,0,0,0,0,0,0,0,0,0,0,0,0,0,0,0,0,0,0,0,0,0,0,0,0,0,0,0,0,0,0,0,0],"sum_hessian":[8.750381E1,2.8489033E1,5.901478E1,1.4334993E1,1.4154038E1,4.3872917E1,1.514186E1,7.134076E0,7.2009172E0,1.7888664E0,1.2365172E1,4.367628E0,3.9505287E1,1.332187E1,1.8199899E0,1.7762749E0,5.4246426E0,6.7013164E0,5.6638556E0,1.5373114E0,2.830317E0,1.6470829E1,2.303446E1,6.641216E0,6.6806545E0,4.0010324E0,1.42361E0,4.9377875E0,1.7635291E0,1.1709625E0,4.492893E0,1.0960237E1,5.5105925E0,1.9950977E1,3.0834823E0,1.5869707E0,5.054245E0,5.5570664E0,1.1235881E0,1.1390332E0,3.7987542E0,2.0419204E0,2.4509728E0,1.103729E0,9.856508E0,1.6842242E0,3.8263683E0,1.8023067E1,1.9279089E0,1.1361988E0,1.9472836E0,3.7892926E0,1.2649523E0,1.1116512E0,4.445415E0],"tree_param":{"num_deleted":"0","num_feature":"15","num_nodes":"55","size_leaf_vector":"1"}},{"base_weights":[-6.1555676E-2,-4.400026E-1,8.171892E-2,-7.261949E-1,-1.3641565E-1,1.09434955E-1,-2.0477712E-1,-2.4120708E-1,-3.2455832E-1,1.7450139E-1,-2.857944E-1,1.2736822E-2,4.4894236E-1,-1.8843605E-1,6.177253E-2,1.6869964E-1,-6.262255E-1,-4.0212336E-1,9.5862776E-2,7.37184E-1,2.2922097E-1,-1.22755505E-1,4.5759934E-1,-2.3526771E-1,-5.7280842E-2,9.907779E-2,-7.1343297E-1,3.723722E-2,2.319048E-1,3.705905E-2,2.6425314E-1,-2.3402637E-1,4.8556247E-1,2.1863636E-1,-6.1851894E-3,-1.2824646E-1,1.8229695E-1,-2.4906455E-1,-6.7504525E-2,2.627418E-2,-2.387788E-1,-1.7631656E-1,8.714719E-2,-4.2589623E-2,2.0092663E-1],"categories":[],"categories_nodes":[],"categories_segments":[],"categories_sizes":[],"default_left":[0,0,0,0,0,0,0,0,0,0,0,0,0,0,0,0,0,0,0,0,0,0,0,0,0,0,0,0,0,0,0,0,0,0,0,0,0,0,0,0,0,0,0,0,0],"id":10,"left_children":[1,3,5,7,9,11,-1,-1,13,-1,15,17,19,-1,-1,21,23,25,27,29,31,-1,33,-1,-1,35,37,39,-1,-1,-1,41,43,-1,-1,-1,-1,-1,-1,-1,-1,-1,-1,-1,-1],"loss_changes":[4.5585E0,1.9046693E0,1.3742311E0,1.0289478E-1,1.498736E0,1.9660738E0,0E0,0E0,7.0362103E-1,0E0,1.8004384E0,1.6861348E0,6.7241E-1,0E0,0E0,1.1019236E0,2.955811E-1,1.3450459E0,1.5833118E0,3.5800862E-1,1.1811777E0,0E0,5.4995155E-1,0E0,0E0,1.3329453E0,1.0751271E-1,1.6813599E0,0E0,0E0,0E0,8.90036E-1,8.016145E-1,0E0,0E0,0E0,0E0,0E0,0E0,0E0,0E0,0E0,0E0,0E0,0E0],"parents":[2147483647,0,0,1,1,2,2,3,3,4,4,5,5,8,8,10,10,11,11,12,12,15,15,16,16,17,17,18,18,19,19,20,20,22,22,25,25,26,26,27,27,31,31,32,32],"right_children":[2,4,6,8,10,12,-1,-1,14,-1,16,18,20,-1,-1,22,24,26,28,30,32,-1,34,-1,-1,36,38,40,-1,-1,-1,42,44,-1,-1,-1,-1,-1,-1,-1,-1,-1,-1,-1,-1],"split_conditions":[1E0,1E0,7.4E1,1.3E1,4E0,1.4E1,-2.0477712E-1,-2.4120708E-1,2.5E1,1.7450139E-1,2.1E1,1E0,1.5E1,-1.8843605E-1,6.177253E-2,1.3E1,1E0,6E0,5.8E1,2E1,1E0,-1.22755505E-1,1.1E1,-2.3526771E-1,-5.7280842E-2,1E0,1.3E1,5.4E1,2.319048E-1,3.705905E-2,2.6425314E-1,3.1E1,1E0,2.1863636E-1,-6.1851894E-3,-1.2824646E-1,1.8229695E-1,-2.4906455E-1,-6.7504525E-2,2.627418E-2,-2.387788E-1,-1.7631656E-1,8.714719E-2,-4.2589623E-2,2.0092663E-1],"split_indices":[3,8,10,11,14,11,0,0,10,0,10,1,11,0,0,10,5,11,10,10,5,0,11,0,0,4,11,10,0,0,0,10,0,0,0,0,0,0,0,0,0,0,0,0,0],"split_type":[0,0,0,0,0,0,0,0,0,0,0,0,0,0,0,0,0,0,0,0,0,0,0,0,0,0,0,0,0,0,0,0,0,0,0,0,0,0,0,0,0,0,0,0,0],"sum_hessian":[8.2408165E1,2.2062096E1,6.0346073E1,1.0639837E1,1.1422257E1,5.9061165E1,1.2849071E0,8.073497E0,2.566341E0,1.4685885E0,9.953669E0,4.6775993E1,1.22851715E1,1.5151821E0,1.0511589E0,4.4787483E0,5.4749207E0,7.1674724E0,3.960852E1,4.295298E0,7.9898734E0,1.3539973E0,3.1247509E0,3.4287443E0,2.0461764E0,3.0073879E0,4.1600847E0,3.7423515E1,2.1850066E0,1.1676161E0,3.1276822E0,2.87727E0,5.112603E0,1.6596318E0,1.465119E0,1.5559022E0,1.4514856E0,2.7925682E0,1.3675164E0,3.613497E1,1.2885427E0,1.6464949E0,1.2307751E0,1.2121568E0,3.9004467E0],"tree_param":{"num_deleted":"0","num_feature":"15","num_nodes":"45","size_leaf_vector":"1"}},{"base_weights":[-5.4085705E-2,-2.7460116E-1,1.2658921E-1,-5.7217515E-1,-7.069855E-2,3.6087435E-2,4.9843124E-1,-7.344538E-1,-1.1815226E-1,-2.714935E-1,5.4469593E-2,-2.0036401E-1,8.874449E-2,6.4261784E-3,7.6756305E-1,-2.623167E-1,-4.140201E-1,2.095721E-1,-5.4588276E-1,-6.718186E-2,-2.0057169E-1,5.001359E-1,-1.0120934E-1,-2.4173139E-1,1.744168E-1,7.277515E-2,-1.0409E-1,2.6251942E-1,4.5334063E-2,-2.0431681E-1,-1.2625502E-1,-1.9949602E-1,-3.5341654E-2,-2.2793697E-1,1.1257506E-1,2.4560314E-1,2.592151E-2,-2.1984954E-1,7.6948576E-2,-3.7283817E-1,9.373765E-2,2.4778987E-1,-4.0209582E-1,-9.288204E-2,3.6495686E-2,3.0805247E-2,-1.3361798E-1,-1.558083E-1,7.3852144E-2,6.879181E-2,-1.6313896E-1,5.304875E-2,2.4478829E-1,-1.9418563E-1,3.3909835E-2],"categories":[],"categories_nodes":[],"categories_segments":[],"categories_sizes":[],"default_left":[0,0,0,0,0,0,0,0,0,0,0,0,0,0,0,0,0,0,0,0,0,0,0,0,0,0,0,0,0,0,0,0,0,0,0,0,0,0,0,0,0,0,0,0,0,0,0,0,0,0,0,0,0,0,0],"id":11,"left_children":[1,3,5,7,9,11,13,15,17,19,21,-1,23,25,27,-1,29,-1,31,33,-1,35,37,39,41,-1,-1,-1,-1,-1,43,-1,-1,45,-1,-1,-1,-1,47,49,-1,51,53,-1,-1,-1,-1,-1,-1,-1,-1,-1,-1,-1,-1],"loss_changes":[3.1872742E0,2.14084E0,1.4686522E0,9.798145E-1,5.7961524E-1,1.4162538E0,1.1297617E0,1.07587814E-1,2.1292508E0,6.6874725E-1,1.0688957E0,0E0,1.0314662E0,4.2120475E-1,2.3428893E-1,0E0,3.0458516E-1,0E0,1.1770558E-1,5.777017E-1,0E0,4.5218736E-1,1.3739617E0,6.696174E-1,1.2979872E0,0E0,0E0,0E0,0E0,0E0,2.0466138E-1,0E0,0E0,4.5538348E-1,0E0,0E0,0E0,0E0,1.1407666E0,8.053653E-1,0E0,8.938892E-1,5.2529866E-1,0E0,0E0,0E0,0E0,0E0,0E0,0E0,0E0,0E0,0E0,0E0,0E0],"parents":[2147483647,0,0,1,1,2,2,3,3,4,4,5,5,6,6,7,7,8,8,9,9,10,10,12,12,13,13,14,14,16,16,18,18,19,19,21,21,22,22,23,23,24,24,30,30,33,33,38,38,39,39,41,41,42,42],"right_children":[2,4,6,8,10,12,14,16,18,20,22,-1,24,26,28,-1,30,-1,32,34,-1,36,38,40,42,-1,-1,-1,-1,-1,44,-1,-1,46,-1,-1,-1,-1,48,50,-1,52,54,-1,-1,-1,-1,-1,-1,-1,-1,-1,-1,-1,-1],"split_conditions":[1E0,1E0,1.4E1,3.2E1,2.4E1,1E0,1E0,1E0,3.5E1,2.1E1,2.8E1,-2.0036401E-1,1E0,1.6E1,4.4E1,-2.623167E-1,1E0,2.095721E-1,5E1,2E1,-2.0057169E-1,6E0,1E0,3.6E1,5.5E1,7.277515E-2,-1.0409E-1,2.6251942E-1,4.5334063E-2,-2.0431681E-1,1.4E1,-1.9949602E-1,-3.5341654E-2,1E0,1.1257506E-1,2.4560314E-1,2.592151E-2,-2.1984954E-1,3.1E1,4E0,9.373765E-2,4.9E1,6.1E1,-9.288204E-2,3.6495686E-2,3.0805247E-2,-1.3361798E-1,-1.558083E-1,7.3852144E-2,6.879181E-2,-1.6313896E-1,5.304875E-2,2.4478829E-1,-1.9418563E-1,3.3909835E-2],"split_indices":[5,2,11,10,10,8,6,3,10,10,10,0,7,11,10,0,7,0,10,10,0,11,3,10,10,0,0,0,0,0,11,0,0,1,0,0,0,0,10,11,0,10,10,0,0,0,0,0,0,0,0,0,0,0,0],"split_type":[0,0,0,0,0,0,0,0,0,0,0,0,0,0,0,0,0,0,0,0,0,0,0,0,0,0,0,0,0,0,0,0,0,0,0,0,0,0,0,0,0,0,0,0,0,0,0,0,0,0,0,0,0,0,0],"sum_hessian":[7.812614E1,3.494976E1,4.317638E1,1.3476352E1,2.1473408E1,3.56071E1,7.569279E0,9.472864E0,4.003488E0,7.7967763E0,1.3676631E1,1.6649503E0,3.394215E1,3.03847E0,4.530809E0,5.390178E0,4.082686E0,1.158394E0,2.845094E0,5.91994E0,1.8768365E0,2.9678566E0,1.0708775E1,6.6126523E0,2.7329496E1,2.009298E0,1.0291721E0,3.5007885E0,1.0300205E0,1.4087276E0,2.6739585E0,1.7928443E0,1.0522498E0,4.6978226E0,1.2221173E0,1.1238276E0,1.8440291E0,1.6710446E0,9.03773E0,5.612193E0,1.0004591E0,2.4749773E1,2.579725E0,1.3940444E0,1.2799141E0,2.073326E0,2.6244965E0,1.5404605E0,7.497269E0,1.1655678E0,4.446625E0,2.316753E1,1.582242E0,1.5739902E0,1.0057349E0],"tree_param":{"num_deleted":"0","num_feature":"15","num_nodes":"55","size_leaf_vector":"1"}},{"base_weights":[-4.957281E-2,-3.129327E-1,6.238551E-2,-6.1439854E-1,-1.22511886E-1,9.1560654E-2,-1.794548E-1,-2.62978E-1,-1.0958772E-1,-2.3065245E-1,1.24887414E-1,-8.214262E-3,4.0096438E-1,-1.7915994E-1,1.07033364E-1,-1.7316272E-2,-6.161416E-1,-6.346702E-2,2.0802413E-1,6.8453145E-1,1.990063E-1,-2.1904765E-1,3.997443E-1,-5.6786172E-2,-2.0444073E-1,-1.4276073E-2,-2.6772076E-1,8.54059E-2,2.464466E-1,-7.915434E-2,3.1467563E-1,8.235685E-2,-2.1050552E-1,3.151184E-1,-9.965347E-2,-2.1864466E-2,2.2944345E-1,-8.493276E-2,1.3573523E-1],"categories":[],"categories_nodes":[],"categories_segments":[],"categories_sizes":[],"default_left":[0,0,0,0,0,0,0,0,0,0,0,0,0,0,0,0,0,0,0,0,0,0,0,0,0,0,0,0,0,0,0,0,0,0,0,0,0,0,0],"id":12,"left_children":[1,3,5,7,9,11,-1,-1,13,15,-1,17,19,-1,-1,21,23,25,-1,27,29,31,33,-1,-1,35,-1,-1,-1,-1,37,-1,-1,-1,-1,-1,-1,-1,-1],"loss_changes":[2.2471943E0,1.2280328E0,1.0925443E0,1.0342796E0,9.795439E-1,1.6220895E0,0E0,0E0,1.136836E0,1.0808303E0,0E0,1.619156E0,5.971925E-1,0E0,0E0,8.9296895E-1,2.0523071E-3,1.5604558E0,0E0,3.5404444E-2,5.589521E-1,1.8834927E0,2.0037208E0,0E0,0E0,1.7650373E0,0E0,0E0,0E0,0E0,7.514093E-1,0E0,0E0,0E0,0E0,0E0,0E0,0E0,0E0],"parents":[2147483647,0,0,1,1,2,2,3,3,4,4,5,5,8,8,9,9,11,11,12,12,15,15,16,16,17,17,19,19,20,20,21,21,22,22,25,25,30,30],"right_children":[2,4,6,8,10,12,-1,-1,14,16,-1,18,20,-1,-1,22,24,26,-1,28,30,32,34,-1,-1,36,-1,-1,-1,-1,38,-1,-1,-1,-1,-1,-1,-1,-1],"split_conditions":[1E0,1E0,7.4E1,1E0,4.3E1,1.4E1,-1.794548E-1,-2.62978E-1,3.1E1,2.9E1,1.24887414E-1,5.8E1,1.5E1,-1.7915994E-1,1.07033364E-1,2.4E1,1E0,5.5E1,2.0802413E-1,1E0,1E0,1E0,8E0,-5.6786172E-2,-2.0444073E-1,4.9E1,-2.6772076E-1,8.54059E-2,2.464466E-1,-7.915434E-2,2E1,8.235685E-2,-2.1050552E-1,3.151184E-1,-9.965347E-2,-2.1864466E-2,2.2944345E-1,-8.493276E-2,1.3573523E-1],"split_indices":[4,7,10,1,10,11,0,0,10,10,0,10,11,0,0,10,3,10,0,2,0,1,11,0,0,10,0,0,0,0,10,0,0,0,0,0,0,0,0],"split_type":[0,0,0,0,0,0,0,0,0,0,0,0,0,0,0,0,0,0,0,0,0,0,0,0,0,0,0,0,0,0,0,0,0,0,0,0,0,0,0],"sum_hessian":[7.4551865E1,2.1703522E1,5.2848343E1,7.5399985E0,1.4163523E1,5.143789E1,1.4104527E0,4.4777904E0,3.062208E0,1.2272323E1,1.8912007E0,3.9631256E1,1.1806632E1,1.359858E0,1.7023498E0,8.572871E0,3.6994507E0,3.75813E1,2.0499601E0,3.9171422E0,7.8894897E0,6.0980425E0,2.474829E0,1.0083477E0,2.691103E0,3.6436306E1,1.1449922E0,1.7848734E0,2.132269E0,1.3212833E0,6.5682063E0,3.2280602E0,2.8699822E0,1.0798062E0,1.3950227E0,3.4730236E1,1.7060677E0,1.0326843E0,5.535522E0],"tree_param":{"num_deleted":"0","num_feature":"15","num_nodes":"39","size_leaf_vector":"1"}},{"base_weights":[-3.8902797E-2,-2.313947E-1,1.1048864E-1,-5.8695334E-1,-8.977574E-2,1.499758E-1,-3.4239838E-1,-2.6617554E-1,6.527001E-2,-3.9250958E-1,9.347091E-2,9.2743136E-2,6.9764113E-1,-1.4031743E-1,-1.8611768E-2,8.447687E-2,-6.420466E-2,-2.3565726E-1,-2.4584863E-1,3.8212857E-1,-1.9683385E-1,1.4699647E-1,-1.8590197E-1,6.5192915E-2,2.4663655E-1,-2.0146798E-1,-3.8279247E-2,-2.8707588E-1,7.1760726E-1,-2.4071875E-1,1.4909323E-1,-1.8146986E-1,2.4991687E-1,-1.0203741E-1,6.825615E-2,2.5918638E-2,-1.708599E-1,5.4302007E-2,4.041761E-1,-6.69702E-2,1.435954E-1,-1.8828474E-1,-9.874471E-3,3.5581872E-2,1.7560248E-1],"categories":[],"categories_nodes":[],"categories_segments":[],"categories_sizes":[],"default_left":[0,0,0,0,0,0,0,0,0,0,0,0,0,0,0,0,0,0,0,0,0,0,0,0,0,0,0,0,0,0,0,0,0,0,0,0,0,0,0,0,0,0,0,0,0],"id":13,"left_children":[1,3,5,7,9,11,13,-1,15,17,19,21,23,-1,-1,-1,-1,25,-1,27,29,31,-1,-1,-1,-1,33,35,37,-1,39,41,43,-1,-1,-1,-1,-1,-1,-1,-1,-1,-1,-1,-1],"loss_changes":[2.1297638E0,1.5735893E0,8.002199E-1,1.8244121E0,1.3835083E0,1.1643908E0,9.968397E-2,0E0,2.883253E-1,4.328655E-1,1.4102339E0,1.50787E0,3.4012437E-2,0E0,0E0,0E0,0E0,6.831827E-1,0E0,2.0757346E0,1.921788E0,1.2241666E0,0E0,0E0,0E0,0E0,6.174773E-1,4.1791174E-1,1.7269495E0,0E0,8.821599E-1,5.691196E-1,1.1185272E0,0E0,0E0,0E0,0E0,0E0,0E0,0E0,0E0,0E0,0E0,0E0,0E0],"parents":[2147483647,0,0,1,1,2,2,3,3,4,4,5,5,6,6,8,8,9,9,10,10,11,11,12,12,17,17,19,19,20,20,21,21,26,26,27,27,28,28,30,30,31,31,32,32],"right_children":[2,4,6,8,10,12,14,-1,16,18,20,22,24,-1,-1,-1,-1,26,-1,28,30,32,-1,-1,-1,-1,34,36,38,-1,40,42,44,-1,-1,-1,-1,-1,-1,-1,-1,-1,-1,-1,-1],"split_conditions":[1E0,1E0,5.6E1,1E0,2.4E1,4.9E1,6.1E1,-2.6617554E-1,5E0,2.2E1,3.4E1,4.5E1,6E0,-1.4031743E-1,-1.8611768E-2,8.447687E-2,-6.420466E-2,1E0,-2.4584863E-1,1E0,1E0,1E0,-1.8590197E-1,6.5192915E-2,2.4663655E-1,-2.0146798E-1,1E1,1E0,3.1E1,-2.4071875E-1,4.3E1,1E0,8E0,-1.0203741E-1,6.825615E-2,2.5918638E-2,-1.708599E-1,5.4302007E-2,4.041761E-1,-6.69702E-2,1.435954E-1,-1.8828474E-1,-9.874471E-3,3.5581872E-2,1.7560248E-1],"split_indices":[5,0,10,6,10,10,10,0,11,10,10,10,11,0,0,0,0,9,0,1,4,7,0,0,0,0,11,6,10,0,10,1,11,0,0,0,0,0,0,0,0,0,0,0,0],"split_type":[0,0,0,0,0,0,0,0,0,0,0,0,0,0,0,0,0,0,0,0,0,0,0,0,0,0,0,0,0,0,0,0,0,0,0,0,0,0,0,0,0,0,0,0,0],"sum_hessian":[7.217257E1,3.129711E1,4.0875458E1,8.019126E0,2.3277985E1,3.8212555E1,2.6629043E0,5.2442183E0,2.7749076E0,8.346734E0,1.4931251E1,3.565576E1,2.556792E0,1.3784176E0,1.2844867E0,1.559079E0,1.2158287E0,7.239301E0,1.1074326E0,7.3282638E0,7.602987E0,3.3870087E1,1.7856765E0,1.0913497E0,1.4654424E0,1.5075419E0,5.731759E0,2.4951937E0,4.83307E0,2.28443E0,5.318557E0,7.898652E0,2.5971436E1,2.5529597E0,3.1787996E0,1.3733919E0,1.1218019E0,3.304427E0,1.5286429E0,2.6487195E0,2.669837E0,1.1675166E0,6.7311354E0,1.963745E1,6.333985E0],"tree_param":{"num_deleted":"0","num_feature":"15","num_nodes":"45","size_leaf_vector":"1"}},{"base_weights":[-4.000601E-2,-2.5930056E-1,6.283663E-2,-5.775215E-1,-6.60497E-2,-1.498139E-1,1.4466366E-1,-7.258048E-1,2.3449741E-2,1.333592E-1,-5.391991E-1,1.24183394E-1,-2.8953093E-1,2.1392347E-1,8.517276E-2,-2.7122155E-1,-2.6446772E-1,-4.1327712E-1,5.44575E-1,-2.557929E-1,-1.289676E-1,-5.3007144E-1,2.9020593E-1,3.0718682E-2,1.6642517E-1,-1.614277E-1,3.400532E-2,-2.255693E-1,1.3387268E-2,7.010333E-2,7.6206803E-1,-8.931689E-2,3.3905916E-2,1.3626316E-2,-6.26409E-1,1.6805513E-1,-7.6667316E-2,-4.4405445E-1,1.0727289E-1,1.1680848E-1,-9.498715E-2,-1.5649804E-1,2.0230715E-1,3.2522017E-1,9.1560364E-2,-9.7689554E-2,-2.758503E-1,-2.1720146E-1,-2.0607782E-3,7.250682E-2,-1.7161207E-2],"categories":[],"categories_nodes":[],"categories_segments":[],"categories_sizes":[],"default_left":[0,0,0,0,0,0,0,0,0,0,0,0,0,0,0,0,0,0,0,0,0,0,0,0,0,0,0,0,0,0,0,0,0,0,0,0,0,0,0,0,0,0,0,0,0,0,0,0,0,0,0],"id":14,"left_children":[1,3,5,7,9,11,13,15,-1,17,19,-1,21,-1,23,25,-1,27,29,-1,31,33,35,37,-1,-1,-1,-1,39,41,43,-1,-1,-1,45,-1,-1,47,49,-1,-1,-1,-1,-1,-1,-1,-1,-1,-1,-1,-1],"loss_changes":[1.6088961E0,1.3602519E0,8.7216103E-1,8.795285E-1,1.5132843E0,1.2283186E0,1.1500034E0,2.5645232E-1,0E0,2.8211322E0,4.9795556E-1,0E0,1.8085804E0,0E0,8.407857E-1,3.9254075E-1,0E0,8.08547E-1,6.7124987E-1,0E0,1.6538532E-1,5.130303E-1,7.510866E-1,1.1787257E0,0E0,0E0,0E0,0E0,5.4860467E-1,1.5348386E0,3.6260295E-1,0E0,0E0,0E0,3.665619E-1,0E0,0E0,5.477093E-1,6.241158E-1,0E0,0E0,0E0,0E0,0E0,0E0,0E0,0E0,0E0,0E0,0E0,0E0],"parents":[2147483647,0,0,1,1,2,2,3,3,4,4,5,5,6,6,7,7,9,9,10,10,12,12,14,14,15,15,17,17,18,18,20,20,21,21,22,22,23,23,28,28,29,29,30,30,34,34,37,37,38,38],"right_children":[2,4,6,8,10,12,14,16,-1,18,20,-1,22,-1,24,26,-1,28,30,-1,32,34,36,38,-1,-1,-1,-1,40,42,44,-1,-1,-1,46,-1,-1,48,50,-1,-1,-1,-1,-1,-1,-1,-1,-1,-1,-1,-1],"split_conditions":[1E0,1E0,2E1,1E0,3.4E1,4E0,2.1E1,2.3E1,2.3449741E-2,2.5E1,4.2E1,1.24183394E-1,8E0,2.1392347E-1,1.6E1,1E0,-2.6446772E-1,1E0,1E0,-2.557929E-1,1E1,4E0,1.5E1,1E0,1.6642517E-1,-1.614277E-1,3.400532E-2,-2.255693E-1,1.8E1,3.2E1,6E0,-8.931689E-2,3.3905916E-2,1.3626316E-2,1E0,1.6805513E-1,-7.6667316E-2,1E0,6E0,1.1680848E-1,-9.498715E-2,-1.5649804E-1,2.0230715E-1,3.2522017E-1,9.1560364E-2,-9.7689554E-2,-2.758503E-1,-2.1720146E-1,-2.0607782E-3,7.250682E-2,-1.7161207E-2],"split_indices":[6,0,10,13,10,11,10,10,0,10,10,0,11,0,11,5,0,4,2,0,11,14,11,3,0,0,0,0,10,10,11,0,0,0,13,0,0,5,11,0,0,0,0,0,0,0,0,0,0,0,0],"split_type":[0,0,0,0,0,0,0,0,0,0,0,0,0,0,0,0,0,0,0,0,0,0,0,0,0,0,0,0,0,0,0,0,0,0,0,0,0,0,0,0,0,0,0,0,0,0,0,0,0,0,0],"sum_hessian":[6.961653E1,2.1739466E1,4.7877068E1,7.462581E0,1.4276884E1,1.3072817E1,3.480425E1,5.9989777E0,1.4636031E0,1.0549107E1,3.7277772E0,2.2065692E0,1.0866248E1,2.2566278E0,3.2547623E1,2.230474E0,3.768504E0,4.5266886E0,6.0224185E0,1.5018339E0,2.2259433E0,7.740345E0,3.125903E0,3.0120186E1,2.4274368E0,1.0810755E0,1.1493983E0,2.0987525E0,2.427936E0,2.3085432E0,3.713875E0,1.1757103E0,1.0502331E0,1.1857206E0,6.5546246E0,2.0736766E0,1.0522264E0,3.5157456E0,2.660444E1,1.0508648E0,1.3770711E0,1.2353832E0,1.07316E0,1.3732091E0,2.340666E0,4.2767525E0,2.277872E0,1.7433418E0,1.7724038E0,1.4381728E1,1.22227125E1],"tree_param":{"num_deleted":"0","num_feature":"15","num_nodes":"51","size_leaf_vector":"1"}},{"base_weights":[-3.6286574E-2,-2.031549E-1,8.444578E-2,-5.020796E-1,-1.0047404E-1,2.439699E-2,3.779689E-1,-2.418438E-1,2.5960493E-3,-3.5563487E-1,4.606128E-2,-1.8024658E-1,6.687859E-2,-4.9633984E-2,5.9116375E-1,5.471771E-2,-6.3077174E-2,-3.8007006E-2,-5.0705194E-1,2.2782204E-1,-1.5288152E-1,-1.3351557E-1,1.0299723E-1,5.4356676E-2,2.2676301E-1,-1.2820072E-1,7.647185E-2,-1.4332287E-2,-2.0823708E-1,-2.854355E-1,4.8885477E-1,-2.1542773E-1,1.2100916E-1,1.4650954E-1,-1.0274006E-1,4.662161E-2,-1.5931548E-1,3.0795142E-2,2.760684E-1,-5.4523874E-2,1.16250455E-1,8.554973E-2,2.5297797E-3],"categories":[],"categories_nodes":[],"categories_segments":[],"categories_sizes":[],"default_left":[0,0,0,0,0,0,0,0,0,0,0,0,0,0,0,0,0,0,0,0,0,0,0,0,0,0,0,0,0,0,0,0,0,0,0,0,0,0,0,0,0,0,0],"id":15,"left_children":[1,3,5,7,9,11,13,-1,15,17,19,-1,21,-1,23,-1,-1,25,27,29,31,-1,33,-1,-1,-1,-1,-1,-1,35,37,-1,39,41,-1,-1,-1,-1,-1,-1,-1,-1,-1],"loss_changes":[1.3956335E0,8.4019816E-1,7.0296276E-1,1.1021762E0,8.7067884E-1,9.595041E-1,8.8483703E-1,0E0,1.7964554E-1,3.8710165E-1,5.91648E-1,0E0,6.617543E-1,0E0,2.0728874E-1,0E0,0E0,5.4327303E-1,4.5148516E-1,1.2714329E0,1.3176502E0,0E0,6.690228E-1,0E0,0E0,0E0,0E0,0E0,0E0,4.5928434E-1,8.9994514E-1,0E0,5.715457E-1,5.6786203E-1,0E0,0E0,0E0,0E0,0E0,0E0,0E0,0E0,0E0],"parents":[2147483647,0,0,1,1,2,2,3,3,4,4,5,5,6,6,8,8,9,9,10,10,12,12,14,14,17,17,18,18,19,19,20,20,22,22,29,29,30,30,32,32,33,33],"right_children":[2,4,6,8,10,12,14,-1,16,18,20,-1,22,-1,24,-1,-1,26,28,30,32,-1,34,-1,-1,-1,-1,-1,-1,36,38,-1,40,42,-1,-1,-1,-1,-1,-1,-1,-1,-1],"split_conditions":[1E0,1E0,1.4E1,1E0,2.4E1,1E0,1E0,-2.418438E-1,5E0,1E0,3.4E1,-1.8024658E-1,1E0,-4.9633984E-2,1E0,5.471771E-2,-6.3077174E-2,1E0,1E0,1E0,1E0,-1.3351557E-1,5.6E1,5.4356676E-2,2.2676301E-1,-1.2820072E-1,7.647185E-2,-1.4332287E-2,-2.0823708E-1,2.8E1,3.1E1,-2.1542773E-1,4.3E1,6E0,-1.0274006E-1,4.662161E-2,-1.5931548E-1,3.0795142E-2,2.760684E-1,-5.4523874E-2,1.16250455E-1,8.554973E-2,2.5297797E-3],"split_indices":[5,0,11,6,10,8,0,0,11,1,10,0,9,0,6,0,0,8,7,1,4,0,10,0,0,0,0,0,0,10,10,0,10,11,0,0,0,0,0,0,0,0,0],"split_type":[0,0,0,0,0,0,0,0,0,0,0,0,0,0,0,0,0,0,0,0,0,0,0,0,0,0,0,0,0,0,0,0,0,0,0,0,0,0,0,0,0,0,0],"sum_hessian":[6.7423004E1,2.8017025E1,3.940598E1,6.168773E0,2.1848253E1,3.3612644E1,5.7933373E0,3.4767075E0,2.6920657E0,7.449514E0,1.4398739E1,1.302348E0,3.2310295E1,1.695533E0,4.0978045E0,1.5369326E0,1.155133E0,2.8087027E0,4.6408114E0,7.4484363E0,6.950302E0,1.3832172E0,3.0927076E1,1.7763789E0,2.3214257E0,1.0088555E0,1.7998472E0,1.7065232E0,2.934288E0,2.479539E0,4.968897E0,1.7392665E0,5.2110357E0,2.8786371E1,2.1407053E0,1.0186003E0,1.4609386E0,3.2748852E0,1.6940119E0,2.588411E0,2.6226246E0,1.383154E1,1.4954832E1],"tree_param":{"num_deleted":"0","num_feature":"15","num_nodes":"43","size_leaf_vector":"1"}},{"base_weights":[-3.6803003E-2,-1.7204332E-1,5.9693284E-2,-3.7927678E-1,-6.0874052E-2,-5.217649E-2,2.3766899E-1,-5.7232225E-1,4.58671E-2,5.9111286E-2,-1.7157622E-1,-1.8933342E-1,2.771988E-2,-6.848435E-2,3.930599E-1,-2.1879686E-1,-2.8057492E-1,1.7474148E-1,-1.1479294E-1,-1.3535184E-1,4.2930987E-1,-1.9226237E-1,-3.6651358E-2,1.7724755E-1,-6.689967E-2,-1.1956834E-1,1.4346637E-1,5.992666E-1,3.619288E-2,-1.2710737E-1,6.1625387E-3,2.192727E-1,-3.2035902E-1,1.8271609E-1,3.1963486E-2,-1.5772952E-1,1.2848337E-1,-3.5807818E-1,6.398882E-2,3.3976564E-1,-6.6565715E-2,6.2995054E-2,2.0452543E-1,-5.094968E-2,6.254762E-2,8.803928E-2,1.1779322E-2,-2.058002E-1,-1.2523305E-2,1.4644946E-1,-2.6279395E-2,2.2539787E-2,-2.7984095E-1,1.3322489E-1,-7.238385E-2,2.7913591E-4,1.4793022E-1],"categories":[],"categories_nodes":[],"categories_segments":[],"categories_sizes":[],"default_left":[0,0,0,0,0,0,0,0,0,0,0,0,0,0,0,0,0,0,0,0,0,0,0,0,0,0,0,0,0,0,0,0,0,0,0,0,0,0,0,0,0,0,0,0,0,0,0,0,0,0,0,0,0,0,0,0,0],"id":16,"left_children":[1,3,5,7,9,11,13,15,17,19,21,-1,23,25,27,-1,29,-1,-1,31,33,-1,35,-1,37,-1,39,41,43,-1,-1,45,47,-1,-1,-1,49,51,53,55,-1,-1,-1,-1,-1,-1,-1,-1,-1,-1,-1,-1,-1,-1,-1,-1,-1],"loss_changes":[8.722129E-1,6.1645675E-1,7.9462636E-1,8.060411E-1,2.6595452E-1,1.171282E0,7.568711E-1,9.806752E-2,1.1179965E0,7.769878E-1,6.2701833E-1,0E0,1.2584368E0,4.7816283E-1,7.382009E-1,0E0,1.783801E-1,0E0,0E0,5.496523E-1,1.4852881E-1,0E0,7.977034E-1,0E0,8.036102E-1,0E0,3.9093256E-1,6.492615E-2,2.0742851E-1,0E0,0E0,2.9862523E-2,5.019478E-1,0E0,0E0,0E0,6.304711E-1,1.6894479E0,1.8453186E0,1.6876411E-1,0E0,0E0,0E0,0E0,0E0,0E0,0E0,0E0,0E0,0E0,0E0,0E0,0E0,0E0,0E0,0E0,0E0],"parents":[2147483647,0,0,1,1,2,2,3,3,4,4,5,5,6,6,7,7,8,8,9,9,10,10,12,12,13,13,14,14,16,16,19,19,20,20,22,22,24,24,26,26,27,27,28,28,31,31,32,32,36,36,37,37,38,38,39,39],"right_children":[2,4,6,8,10,12,14,16,18,20,22,-1,24,26,28,-1,30,-1,-1,32,34,-1,36,-1,38,-1,40,42,44,-1,-1,46,48,-1,-1,-1,50,52,54,56,-1,-1,-1,-1,-1,-1,-1,-1,-1,-1,-1,-1,-1,-1,-1,-1,-1],"split_conditions":[1E0,1E0,7E0,3.2E1,2.8E1,1.3E1,1E0,1E0,3.3E1,2.4E1,1E0,-1.8933342E-1,1.7E1,1E0,1E0,-2.1879686E-1,1.4E1,1.7474148E-1,-1.1479294E-1,5E0,6E0,-1.9226237E-1,3.1E1,1.7724755E-1,2.4E1,-1.1956834E-1,3.2E1,1E0,3.1E1,-1.2710737E-1,6.1625387E-3,1.8E1,1E1,1.8271609E-1,3.1963486E-2,-1.5772952E-1,3.6E1,2.1E1,3.7E1,1E0,-6.6565715E-2,6.2995054E-2,2.0452543E-1,-5.094968E-2,6.254762E-2,8.803928E-2,1.1779322E-2,-2.058002E-1,-1.2523305E-2,1.4644946E-1,-2.6279395E-2,2.2539787E-2,-2.7984095E-1,1.3322489E-1,-7.238385E-2,2.7913591E-4,1.4793022E-1],"split_indices":[5,2,11,10,10,10,6,6,10,10,3,0,10,2,13,0,11,0,0,11,11,0,10,0,10,0,10,7,10,0,0,10,11,0,0,0,10,10,10,1,0,0,0,0,0,0,0,0,0,0,0,0,0,0,0,0,0],"split_type":[0,0,0,0,0,0,0,0,0,0,0,0,0,0,0,0,0,0,0,0,0,0,0,0,0,0,0,0,0,0,0,0,0,0,0,0,0,0,0,0,0,0,0,0,0,0,0,0,0,0,0,0,0,0,0,0,0],"sum_hessian":[6.5048325E1,2.6760445E1,3.8287876E1,8.501283E0,1.8259163E1,2.3944176E1,1.4343701E1,5.608459E0,2.8928232E0,8.985834E0,9.273328E0,2.067051E0,2.1877125E1,5.0174766E0,9.326225E0,2.67116E0,2.9372993E0,1.1248851E0,1.7679383E0,6.3071213E0,2.6787128E0,1.2334067E0,8.039922E0,2.3927915E0,1.9484333E1,1.6177177E0,3.399759E0,5.480317E0,3.8459077E0,1.7150807E0,1.2222185E0,2.098834E0,4.2082877E0,1.1508378E0,1.5278751E0,1.4780927E0,6.5618286E0,5.504068E0,1.3980266E1,2.257086E0,1.1426729E0,1.5781302E0,3.9021869E0,1.7580514E0,2.0878563E0,1.0399361E0,1.0588979E0,1.1875782E0,3.0207093E0,1.9900646E0,4.571764E0,3.6340785E0,1.8699895E0,6.024429E0,7.955837E0,1.016632E0,1.2404542E0],"tree_param":{"num_deleted":"0","num_feature":"15","num_nodes":"57","size_leaf_vector":"1"}},{"base_weights":[-3.284936E-2,-1.441636E-1,4.548053E-2,-4.0609178E-1,-6.472489E-2,-4.386287E-2,1.9092602E-1,-2.20254E-1,2.5003035E-2,-2.5874972E-1,4.2700402E-2,-1.5107313E-1,2.0371968E-2,2.138014E-1,9.590043E-2,5.4688774E-2,-5.4799534E-2,-1.8272606E-1,-1.0068021E-1,3.050655E-1,-8.354272E-2,1.4720438E-1,-5.5559717E-2,-3.4452888E-1,2.1770367E-1,7.560623E-2,-2.914336E-1,2.6147828E-1,-2.5453472E-1,1.4033851E-1,-2.4244787E-1,-2.603173E-1,6.8820216E-2,-1.48005E-1,6.5584155E-4,4.234863E-1,-2.007515E-1,-1.425359E-1,8.645106E-3,-1.7330386E-1,7.2220005E-2,-2.2443636E-1,-1.6677586E-2,1.7303245E-2,-1.625845E-1,-5.919952E-2,1.4187384E-1,4.2229034E-3,2.099319E-1,7.3815815E-2,-1.2567343E-1],"categories":[],"categories_nodes":[],"categories_segments":[],"categories_sizes":[],"default_left":[0,0,0,0,0,0,0,0,0,0,0,0,0,0,0,0,0,0,0,0,0,0,0,0,0,0,0,0,0,0,0,0,0,0,0,0,0,0,0,0,0,0,0,0,0,0,0,0,0,0,0],"id":17,"left_children":[1,3,5,7,9,11,13,-1,15,17,19,-1,21,-1,23,-1,-1,-1,25,27,29,-1,31,33,35,-1,37,-1,39,-1,41,43,45,-1,-1,47,49,-1,-1,-1,-1,-1,-1,-1,-1,-1,-1,-1,-1,-1,-1],"loss_changes":[5.678979E-1,5.319937E-1,5.0929946E-1,8.7464046E-1,4.6494615E-1,7.394374E-1,6.681838E-1,0E0,1.5035087E-1,3.7627453E-1,5.181636E-1,0E0,8.352997E-1,0E0,8.111486E-1,0E0,0E0,0E0,5.20398E-1,1.8219554E0,1.0620217E0,0E0,5.3694415E-1,1.7445174E-1,1.06343E0,0E0,2.945953E-1,0E0,6.693043E-1,0E0,8.148222E-1,7.3970705E-1,1.5419436E0,0E0,0E0,8.8808036E-1,5.3430516E-1,0E0,0E0,0E0,0E0,0E0,0E0,0E0,0E0,0E0,0E0,0E0,0E0,0E0,0E0],"parents":[2147483647,0,0,1,1,2,2,3,3,4,4,5,5,6,6,8,8,9,9,10,10,12,12,14,14,18,18,19,19,20,20,22,22,23,23,24,24,26,26,28,28,30,30,31,31,32,32,35,35,36,36],"right_children":[2,4,6,8,10,12,14,-1,16,18,20,-1,22,-1,24,-1,-1,-1,26,28,30,-1,32,34,36,-1,38,-1,40,-1,42,44,46,-1,-1,48,50,-1,-1,-1,-1,-1,-1,-1,-1,-1,-1,-1,-1,-1,-1],"split_conditions":[1E0,1E0,7E0,1E0,2.4E1,1.3E1,1.1E1,-2.20254E-1,2.6E1,1E0,1E0,-1.5107313E-1,1.7E1,2.138014E-1,2E1,5.4688774E-2,-5.4799534E-2,-1.8272606E-1,1E0,8E0,2.8E1,1.4720438E-1,2.7E1,1.3E1,1E0,7.560623E-2,1.4E1,2.6147828E-1,1.3E1,1.4033851E-1,3.1E1,2.1E1,1E0,-1.48005E-1,6.5584155E-4,1E0,1E0,-1.425359E-1,8.645106E-3,-1.7330386E-1,7.2220005E-2,-2.2443636E-1,-1.6677586E-2,1.7303245E-2,-1.625845E-1,-5.919952E-2,1.4187384E-1,4.2229034E-3,2.099319E-1,7.3815815E-2,-1.2567343E-1],"split_indices":[5,0,11,6,10,10,10,0,10,9,8,0,10,0,10,0,0,0,3,11,10,0,10,11,12,0,11,0,11,0,10,10,12,0,0,6,7,0,0,0,0,0,0,0,0,0,0,0,0,0,0],"split_type":[0,0,0,0,0,0,0,0,0,0,0,0,0,0,0,0,0,0,0,0,0,0,0,0,0,0,0,0,0,0,0,0,0,0,0,0,0,0,0,0,0,0,0,0,0,0,0,0,0,0,0],"sum_hessian":[6.3379665E1,2.5830954E1,3.754871E1,5.054165E0,2.077679E1,2.3693085E1,1.3855626E1,2.4707334E0,2.5834312E0,6.9020643E0,1.3874725E1,2.0661922E0,2.1626894E1,1.133311E0,1.2722315E1,1.5395305E0,1.0439007E0,1.2588129E0,5.6432514E0,4.047177E0,9.827548E0,2.2470245E0,1.937987E1,2.3600438E0,1.0362271E1,1.868054E0,3.7751975E0,1.7340887E0,2.3130884E0,1.7638448E0,8.063704E0,6.9105744E0,1.2469295E1,1.3553559E0,1.0046879E0,6.938245E0,3.4240263E0,2.0918112E0,1.6833863E0,1.2990845E0,1.014004E0,1.3652645E0,6.698439E0,3.6192336E0,3.291341E0,7.826263E0,4.643031E0,3.2190733E0,3.7191718E0,1.0814003E0,2.3426259E0],"tree_param":{"num_deleted":"0","num_feature":"15","num_nodes":"51","size_leaf_vector":"1"}},{"base_weights":[-2.8010279E-2,-8.8240625E-3,-1.5237777E-1,-3.645339E-2,4.6991405E-1,-9.4853364E-2,1.8502404E-1,1.6827789E-1,4.5187633E-2,-2.4352056E-1,-1.17077725E-2,4.9849525E-1,-1.4343832E-2,-1.4255889E-1,-4.9947652E-1,-1.686165E-1,2.7603954E-2,3.3713683E-2,1.9581088E-1,1.5746489E-1,-1.5297386E-1,-8.107632E-2,1.1003449E-1,-2.295484E-1,-4.1559204E-2,1.7155828E-2,-1.1203928E-1,-1.4948784E-1,2.7628387E-3],"categories":[],"categories_nodes":[],"categories_segments":[],"categories_sizes":[],"default_left":[0,0,0,0,0,0,0,0,0,0,0,0,0,0,0,0,0,0,0,0,0,0,0,0,0,0,0,0,0],"id":18,"left_children":[1,3,-1,5,7,9,11,-1,-1,13,15,17,19,21,23,-1,25,-1,-1,-1,27,-1,-1,-1,-1,-1,-1,-1,-1],"loss_changes":[5.751549E-1,8.312467E-1,0E0,7.822028E-1,1.519233E-2,5.836005E-1,7.992693E-1,0E0,0E0,3.6723542E-1,6.965284E-1,2.2169912E-1,7.320948E-1,9.8149514E-1,3.1594014E-1,0E0,3.8122836E-1,0E0,0E0,0E0,4.3641543E-1,0E0,0E0,0E0,0E0,0E0,0E0,0E0,0E0],"parents":[2147483647,0,0,1,1,3,3,4,4,5,5,6,6,9,9,10,10,11,11,12,12,13,13,14,14,16,16,20,20],"right_children":[2,4,-1,6,8,10,12,-1,-1,14,16,18,20,22,24,-1,26,-1,-1,-1,28,-1,-1,-1,-1,-1,-1,-1,-1],"split_conditions":[7.4E1,5.8E1,-1.5237777E-1,1.4E1,5E0,1E0,1.5E1,1.6827789E-1,4.5187633E-2,3.6E1,1E0,1E0,4E0,3.2E1,4.3E1,-1.686165E-1,5.5E1,3.3713683E-2,1.9581088E-1,1.5746489E-1,1E0,-8.107632E-2,1.1003449E-1,-2.295484E-1,-4.1559204E-2,1.7155828E-2,-1.1203928E-1,-1.4948784E-1,2.7628387E-3],"split_indices":[10,10,0,11,11,5,11,0,0,10,8,2,14,10,10,0,10,0,0,0,1,0,0,0,0,0,0,0,0],"split_type":[0,0,0,0,0,0,0,0,0,0,0,0,0,0,0,0,0,0,0,0,0,0,0,0,0,0,0,0,0],"sum_hessian":[6.1950874E1,6.0548626E1,1.4022455E0,5.8118313E1,2.4303162E0,4.6443615E1,1.1674698E1,1.3022996E0,1.1280167E0,1.5966363E1,3.0477251E1,3.9552999E0,7.719398E0,1.2566486E1,3.3998764E0,1.1453573E0,2.9331894E1,1.6222198E0,2.3330798E0,1.0088967E0,6.7105017E0,1.0422812E1,2.1436737E0,1.3133029E0,2.0865734E0,2.8115551E1,1.216342E0,1.4822043E0,5.228297E0],"tree_param":{"num_deleted":"0","num_feature":"15","num_nodes":"29","size_leaf_vector":"1"}},{"base_weights":[-2.3615863E-2,-2.3849459E-1,1.1877245E-2,-2.0452902E-1,2.5024813E-2,-1.2632686E-1,6.115758E-2,-1.2413408E-1,2.1574752E-1,-1.7333059E-1,1.400578E-2,-3.3904E-1,1.2847927E-1,-2.3922578E-2,1.5276963E-1,-1.1949494E-1,1.4535613E-1,-5.889683E-1,3.1939764E-2,2.7183992E-1,-1.4726378E-1,-8.5786104E-2,8.430844E-2,1.4643595E-1,-2.4095887E-1,-2.8314814E-1,5.7282366E-2,4.1953728E-1,-1.6982278E-1,1.6817674E-1,-2.637505E-1,-1.132051E-1,1.05628274E-1,-4.4954177E-2,1.6538791E-1,-9.730647E-2,8.8042594E-2,-1.618987E-1,2.0422874E-2],"categories":[],"categories_nodes":[],"categories_segments":[],"categories_sizes":[],"default_left":[0,0,0,0,0,0,0,0,0,0,0,0,0,0,0,0,0,0,0,0,0,0,0,0,0,0,0,0,0,0,0,0,0,0,0,0,0,0,0],"id":19,"left_children":[1,3,5,-1,7,9,11,-1,13,-1,15,17,19,21,-1,23,-1,25,-1,27,29,-1,-1,-1,31,-1,-1,33,35,-1,37,-1,-1,-1,-1,-1,-1,-1,-1],"loss_changes":[4.7388756E-1,1.0453589E0,3.7523794E-1,0E0,6.3205135E-1,9.273151E-1,1.1333861E0,0E0,3.7639916E-1,0E0,8.145099E-1,7.4186665E-1,1.4374909E0,3.8444126E-1,0E0,8.6931545E-1,0E0,1.3040227E0,0E0,1.6113966E0,1.1984234E0,0E0,0E0,0E0,8.7361544E-1,0E0,0E0,1.4315746E0,5.6976914E-1,0E0,1.1006665E0,0E0,0E0,0E0,0E0,0E0,0E0,0E0,0E0],"parents":[2147483647,0,0,1,1,2,2,4,4,5,5,6,6,8,8,10,10,11,11,12,12,13,13,15,15,17,17,19,19,20,20,24,24,27,27,28,28,30,30],"right_children":[2,4,6,-1,8,10,12,-1,14,-1,16,18,20,22,-1,24,-1,26,-1,28,30,-1,-1,-1,32,-1,-1,34,36,-1,38,-1,-1,-1,-1,-1,-1,-1,-1],"split_conditions":[1E0,2.4E1,1E0,-2.0452902E-1,5E0,1E0,1.6E1,-1.2413408E-1,1E0,-1.7333059E-1,4.3E1,1E0,3.7E1,1.3E1,1.5276963E-1,1.6E1,1.4535613E-1,1.3E1,3.1939764E-2,1E0,1E0,-8.5786104E-2,8.430844E-2,1.4643595E-1,1.4E1,-2.8314814E-1,5.7282366E-2,1E0,3.1E1,1.6817674E-1,4.9E1,-1.132051E-1,1.05628274E-1,-4.4954177E-2,1.6538791E-1,-9.730647E-2,8.8042594E-2,-1.618987E-1,2.0422874E-2],"split_indices":[9,10,7,0,11,4,10,0,6,0,10,12,10,11,0,10,0,10,0,12,2,0,0,0,11,0,0,2,10,0,10,0,0,0,0,0,0,0,0],"split_type":[0,0,0,0,0,0,0,0,0,0,0,0,0,0,0,0,0,0,0,0,0,0,0,0,0,0,0,0,0,0,0,0,0,0,0,0,0,0,0],"sum_hessian":[6.0763805E1,7.803173E0,5.2960632E1,2.317588E0,5.485585E0,1.3509768E1,3.9450863E1,1.3075962E0,4.177989E0,2.4644954E0,1.1045272E1,5.0996413E0,3.4351223E1,2.805447E0,1.3725419E0,9.185166E0,1.8601053E0,3.0606174E0,2.039024E0,2.261019E1,1.1741034E1,1.5424131E0,1.263034E0,1.0273386E0,8.157828E0,1.959067E0,1.1015505E0,1.6981476E1,5.628715E0,1.120378E0,1.0620655E1,6.928187E0,1.2296412E0,3.1652946E0,1.381618E1,4.445746E0,1.1829689E0,5.4569216E0,5.1637335E0],"tree_param":{"num_deleted":"0","num_feature":"15","num_nodes":"39","size_leaf_vector":"1"}},{"base_weights":[-1.9148005E-2,-1.8749668E-1,2.344636E-2,-6.823708E-2,-1.7898428E-1,-2.3769529E-1,5.700425E-2,-2.1015038E-1,1.5301031E-1,7.5043626E-2,-4.235118E-1,8.0301784E-2,-1.2015476E-1,-1.817767E-1,3.1497926E-2,6.776353E-2,-3.0351323E-1,2.1309618E-2,3.232097E-1,-1.2050507E-1,2.3043148E-1,6.624127E-2,-2.6863953E-1,1.9814874E-1,8.511735E-2,-3.556238E-2,1.6914578E-1,1.7451754E-1,7.631749E-3,-1.8817584E-1,2.0909932E-2,5.531121E-2,-4.867596E-2],"categories":[],"categories_nodes":[],"categories_segments":[],"categories_sizes":[],"default_left":[0,0,0,0,0,0,0,0,0,0,0,0,0,0,0,0,0,0,0,0,0,0,0,0,0,0,0,0,0,0,0,0,0],"id":20,"left_children":[1,3,5,7,-1,9,11,13,-1,-1,15,17,-1,-1,19,-1,-1,21,23,-1,25,27,29,-1,31,-1,-1,-1,-1,-1,-1,-1,-1],"loss_changes":[4.3944526E-1,5.624416E-1,4.4565722E-1,9.85344E-1,0E0,6.3245153E-1,5.064933E-1,9.0855765E-1,0E0,0E0,1.9769853E0,6.118236E-1,0E0,0E0,6.7210007E-1,0E0,0E0,4.843321E-1,6.1563927E-1,0E0,6.76959E-1,6.542144E-1,6.506984E-1,0E0,1.7851189E-1,0E0,0E0,0E0,0E0,0E0,0E0,0E0,0E0],"parents":[2147483647,0,0,1,1,2,2,3,3,5,5,6,6,7,7,10,10,11,11,14,14,17,17,18,18,20,20,21,21,22,22,24,24],"right_children":[2,4,6,8,-1,10,12,14,-1,-1,16,18,-1,-1,20,-1,-1,22,24,-1,26,28,30,-1,32,-1,-1,-1,-1,-1,-1,-1,-1],"split_conditions":[1E0,3.3E1,1.6E1,1E0,-1.7898428E-1,5E0,7.4E1,1E0,1.5301031E-1,7.5043626E-2,1.1E1,1.4E1,-1.2015476E-1,-1.817767E-1,5E0,6.776353E-2,-3.0351323E-1,1.1E1,1.5E1,-1.2050507E-1,2.3E1,3E0,1E0,1.9814874E-1,3.8E1,-3.556238E-2,1.6914578E-1,1.7451754E-1,7.631749E-3,-1.8817584E-1,2.0909932E-2,5.531121E-2,-4.867596E-2],"split_indices":[3,10,10,13,0,11,10,2,0,0,10,11,0,0,11,0,0,11,11,0,10,14,5,0,10,0,0,0,0,0,0,0,0],"split_type":[0,0,0,0,0,0,0,0,0,0,0,0,0,0,0,0,0,0,0,0,0,0,0,0,0,0,0,0,0,0,0,0,0],"sum_hessian":[5.9670338E1,1.1361919E1,4.830842E1,9.700865E0,1.6610546E0,4.8082576E0,4.350016E1,8.300446E0,1.4004196E0,1.2307813E0,3.5774763E0,4.217694E1,1.323221E0,2.575247E0,5.7251987E0,1.993059E0,1.5844171E0,3.4810623E1,7.3663163E0,1.4810343E0,4.2441645E0,3.0808033E1,4.0025916E0,2.31406E0,5.052256E0,2.388472E0,1.8556924E0,1.2873051E0,2.9520727E1,1.5285412E0,2.4740503E0,3.7873304E0,1.2649258E0],"tree_param":{"num_deleted":"0","num_feature":"15","num_nodes":"33","size_leaf_vector":"1"}},{"base_weights":[-1.8976038E-2,-1.3876222E-1,2.8690966E-2,-2.3136382E-1,3.1818995E-1,-1.8490853E-2,2.7173877E-1,-7.9555415E-2,-5.802232E-1,1.5195876E-1,7.347263E-4,2.6446331E-2,-1.790535E-1,5.542721E-1,-1.2170416E-3,-2.7719018E-1,1.7728451E-1,-2.3821835E-1,-4.911646E-2,-1.8850429E-2,1.6490667E-1,2.112661E-2,2.2614333E-1,9.0076335E-2,-2.0247786E-1,-2.0410237E-1,-8.8298604E-2,2.8907215E-2,-1.8081868E-1,-1.2200285E-1,4.0360518E-2,1.0677091E-1,-1.0269355E-1,9.839672E-2,-1.3683919E-2],"categories":[],"categories_nodes":[],"categories_segments":[],"categories_sizes":[],"default_left":[0,0,0,0,0,0,0,0,0,0,0,0,0,0,0,0,0,0,0,0,0,0,0,0,0,0,0,0,0,0,0,0,0,0,0],"id":21,"left_children":[1,3,5,7,9,11,13,15,17,-1,-1,19,-1,21,23,25,-1,-1,-1,27,-1,-1,-1,-1,29,-1,31,33,-1,-1,-1,-1,-1,-1,-1],"loss_changes":[3.4294865E-1,7.9593515E-1,5.015095E-1,7.3620576E-1,1.9484329E-1,9.8241824E-1,5.483813E-1,1.6814216E0,2.5478625E-1,0E0,0E0,8.510234E-1,0E0,2.8405786E-1,3.405086E-1,6.6534525E-1,0E0,0E0,0E0,9.5462954E-1,0E0,0E0,0E0,0E0,2.8605944E-1,0E0,9.8340416E-1,7.286805E-1,0E0,0E0,0E0,0E0,0E0,0E0,0E0],"parents":[2147483647,0,0,1,1,2,2,3,3,4,4,5,5,6,6,7,7,8,8,11,11,13,13,14,14,15,15,19,19,24,24,26,26,27,27],"right_children":[2,4,6,8,10,12,14,16,18,-1,-1,20,-1,22,24,26,-1,-1,-1,28,-1,-1,-1,-1,30,-1,32,34,-1,-1,-1,-1,-1,-1,-1],"split_conditions":[1E0,1E0,4.8E1,3.3E1,8E0,4.5E1,5.6E1,3.1E1,1.3E1,1.5195876E-1,7.347263E-4,4.3E1,-1.790535E-1,6E0,1E0,1E0,1.7728451E-1,-2.3821835E-1,-4.911646E-2,4.1E1,1.6490667E-1,2.112661E-2,2.2614333E-1,9.0076335E-2,6.1E1,-2.0410237E-1,6E0,4E0,-1.8081868E-1,-1.2200285E-1,4.0360518E-2,1.0677091E-1,-1.0269355E-1,9.839672E-2,-1.3683919E-2],"split_indices":[6,12,10,10,11,10,10,10,11,0,0,10,0,11,5,9,0,0,0,10,0,0,0,0,10,0,11,11,0,0,0,0,0,0,0],"split_type":[0,0,0,0,0,0,0,0,0,0,0,0,0,0,0,0,0,0,0,0,0,0,0,0,0,0,0,0,0,0,0,0,0,0,0],"sum_hessian":[5.836539E1,1.6070211E1,4.229518E1,1.3772822E1,2.2973893E0,3.6193092E1,6.1020875E0,1.0452426E1,3.3203962E0,1.0605284E0,1.2368608E0,3.4469166E1,1.7239256E0,2.492009E0,3.6100786E0,8.525949E0,1.9264776E0,1.5949991E0,1.725397E0,3.2610104E1,1.8590614E0,1.1226604E0,1.3693485E0,1.248326E0,2.3617527E0,1.8901181E0,6.6358304E0,3.1023098E1,1.5870063E0,1.3419492E0,1.0198034E0,2.2682114E0,4.367619E0,5.5095544E0,2.5513544E1],"tree_param":{"num_deleted":"0","num_feature":"15","num_nodes":"35","size_leaf_vector":"1"}},{"base_weights":[-1.442553E-2,-1.0895696E-1,4.7401395E-2,1.224191E-1,-1.5956873E-1,-1.07025534E-1,7.68407E-2,-5.988538E-2,1.0733388E-1,-2.0027578E-1,-8.404973E-2,-3.095426E-3,2.2012523E-1,-1.2659152E-2,-4.09048E-1,1.1125407E-1,-2.152465E-1,1.8061401E-1,1.1604279E-1,-2.2073235E-1,6.778541E-2,-1.5088506E-1,-3.952253E-2,2.1161146E-1,-1.2402829E-1,-3.1628117E-1,7.875055E-2,2.3692779E-1,-9.063739E-2,-1.8960123E-1,5.256456E-2,-4.1040655E-2,5.503069E-2,-1.0258893E-2,1.112828E-1,-2.552346E-2,-1.6936456E-1,1.5980396E-1,-9.461497E-3,-1.4967626E-1,7.778355E-2],"categories":[],"categories_nodes":[],"categories_segments":[],"categories_sizes":[],"default_left":[0,0,0,0,0,0,0,0,0,0,0,0,0,0,0,0,0,0,0,0,0,0,0,0,0,0,0,0,0,0,0,0,0,0,0,0,0,0,0,0,0],"id":22,"left_children":[1,3,5,7,9,-1,11,-1,-1,-1,13,15,17,19,21,23,25,-1,27,29,31,-1,-1,33,-1,35,-1,37,39,-1,-1,-1,-1,-1,-1,-1,-1,-1,-1,-1,-1],"loss_changes":[3.4736097E-1,2.9419565E-1,4.568668E-1,4.33381E-1,6.9887483E-1,0E0,3.9545E-1,0E0,0E0,0E0,4.1886494E-1,5.845862E-1,4.213252E-1,2.8305438E-1,1.8621027E-2,9.12897E-1,4.9015436E-1,0E0,2.9503098E-1,8.762085E-1,3.1649643E-1,0E0,0E0,5.539496E-1,0E0,3.776341E-1,0E0,5.872918E-1,8.0995935E-1,0E0,0E0,0E0,0E0,0E0,0E0,0E0,0E0,0E0,0E0,0E0,0E0],"parents":[2147483647,0,0,1,1,2,2,3,3,4,4,6,6,10,10,11,11,12,12,13,13,14,14,15,15,16,16,18,18,19,19,20,20,23,23,25,25,27,27,28,28],"right_children":[2,4,6,8,10,-1,12,-1,-1,-1,14,16,18,20,22,24,26,-1,28,30,32,-1,-1,34,-1,36,-1,38,40,-1,-1,-1,-1,-1,-1,-1,-1,-1,-1,-1,-1],"split_conditions":[1E0,4E0,1E0,3E0,1.7E1,-1.07025534E-1,7E0,-5.988538E-2,1.0733388E-1,-2.0027578E-1,4.5E1,6E0,4E0,1E0,1E0,5.5E1,4.6E1,1.8061401E-1,1E0,1.3E1,2.4E1,-1.5088506E-1,-3.952253E-2,2.4E1,-1.2402829E-1,2.6E1,7.875055E-2,2.3E1,3.1E1,-1.8960123E-1,5.256456E-2,-4.1040655E-2,5.503069E-2,-1.0258893E-2,1.112828E-1,-2.552346E-2,-1.6936456E-1,1.5980396E-1,-9.461497E-3,-1.4967626E-1,7.778355E-2],"split_indices":[5,11,8,11,10,0,11,0,0,0,10,11,14,2,12,10,10,0,13,11,10,0,0,10,0,10,0,10,10,0,0,0,0,0,0,0,0,0,0,0,0],"split_type":[0,0,0,0,0,0,0,0,0,0,0,0,0,0,0,0,0,0,0,0,0,0,0,0,0,0,0,0,0,0,0,0,0,0,0,0,0,0,0,0,0],"sum_hessian":[5.7549244E1,2.245459E1,3.5094654E1,3.7755492E0,1.867904E1,1.6279106E0,3.3466743E1,1.6583455E0,2.1172037E0,1.40275E0,1.727629E1,2.211021E1,1.1356534E1,1.5016623E1,2.2596674E0,1.46756315E1,7.43458E0,1.4075019E0,9.949032E0,3.7007005E0,1.1315922E1,1.0801908E0,1.1794767E0,1.2820167E1,1.8554645E0,6.415747E0,1.0188329E0,6.1850896E0,3.763942E0,1.5227916E0,2.177909E0,4.0205646E0,7.295357E0,5.350725E0,7.4694414E0,4.0172787E0,2.3984685E0,2.4747043E0,3.7103853E0,1.5405685E0,2.2233737E0],"tree_param":{"num_deleted":"0","num_feature":"15","num_nodes":"41","size_leaf_vector":"1"}},{"base_weights":[-1.8244317E-2,-1.0070325E-1,3.5300348E-2,4.2671155E-2,-1.6850094E-1,-3.5347044E-3,2.6270756E-1,-9.795567E-2,1.6729295E-1,-9.289429E-2,-1.4506866E-1,-1.2699994E-1,2.7835945E-2,1.563448E-1,-7.510334E-2,-8.337136E-2,3.0433768E-1,-3.3027786E-1,6.735238E-2,-1.5540761E-1,7.9584636E-2,1.6195576E-1,5.3273425E-2,1.0326414E-2,-4.7973236E-1,-1.3823543E-1,1.7515405E-1,-2.8814894E-1,3.429065E-2,1.56574E-1,-7.573599E-2,-1.6567843E-1,1.3833648E-1,-4.6716403E-2,-1.653374E-1,8.175301E-2,-1.184445E-1,-1.21450484E-1,1.3280007E-1,3.019534E-2,-1.24552645E-1,1.4563474E-2,2.1720639E-1,-1.0845711E-1,1.0342317E-1],"categories":[],"categories_nodes":[],"categories_segments":[],"categories_sizes":[],"default_left":[0,0,0,0,0,0,0,0,0,0,0,0,0,0,0,0,0,0,0,0,0,0,0,0,0,0,0,0,0,0,0,0,0,0,0,0,0,0,0,0,0,0,0,0,0],"id":23,"left_children":[1,3,5,7,9,11,13,-1,15,17,-1,-1,19,-1,-1,-1,21,23,25,27,29,-1,31,-1,33,35,37,39,-1,41,43,-1,-1,-1,-1,-1,-1,-1,-1,-1,-1,-1,-1,-1,-1],"loss_changes":[2.5768092E-1,2.2997917E-1,3.1565222E-1,4.2989182E-1,3.305718E-1,4.2563838E-1,8.2146996E-1,0E0,4.9696863E-1,5.5291486E-1,0E0,0E0,2.9854205E-1,0E0,0E0,0E0,3.0505818E-1,3.3218044E-1,2.2719872E-1,2.829918E-1,3.011749E-1,0E0,1.203518E0,0E0,1.0751903E-2,4.9852487E-1,1.1798711E0,2.8698844E-1,0E0,9.7644764E-1,1.1691545E0,0E0,0E0,0E0,0E0,0E0,0E0,0E0,0E0,0E0,0E0,0E0,0E0,0E0,0E0],"parents":[2147483647,0,0,1,1,2,2,3,3,4,4,5,5,6,6,8,8,9,9,12,12,16,16,17,17,18,18,19,19,20,20,22,22,24,24,25,25,26,26,27,27,29,29,30,30],"right_children":[2,4,6,8,10,12,14,-1,16,18,-1,-1,20,-1,-1,-1,22,24,26,28,30,-1,32,-1,34,36,38,40,-1,42,44,-1,-1,-1,-1,-1,-1,-1,-1,-1,-1,-1,-1,-1,-1],"split_conditions":[1E0,5E0,1.4E1,1E0,4.5E1,1E0,3.8E1,-9.795567E-2,1E0,2.4E1,-1.4506866E-1,-1.2699994E-1,1E0,1.563448E-1,-7.510334E-2,-8.337136E-2,2.8E1,1E0,1E0,1E0,3.9E1,1.6195576E-1,3.2E1,1.0326414E-2,1E0,1.2E1,7E0,1.8E1,3.429065E-2,3.2E1,1E0,-1.6567843E-1,1.3833648E-1,-4.6716403E-2,-1.653374E-1,8.175301E-2,-1.184445E-1,-1.21450484E-1,1.3280007E-1,3.019534E-2,-1.24552645E-1,1.4563474E-2,2.1720639E-1,-1.0845711E-1,1.0342317E-1],"split_indices":[5,11,11,3,10,9,10,0,1,10,0,0,7,0,0,0,10,1,1,13,10,0,10,0,3,11,11,10,0,10,12,0,0,0,0,0,0,0,0,0,0,0,0,0,0],"split_type":[0,0,0,0,0,0,0,0,0,0,0,0,0,0,0,0,0,0,0,0,0,0,0,0,0,0,0,0,0,0,0,0,0,0,0,0,0,0,0,0,0,0,0,0,0],"sum_hessian":[5.6556618E1,2.1919617E1,3.4637E1,7.156372E0,1.4763245E1,3.0425585E1,4.211417E0,1.3971778E0,5.759194E0,1.2950339E1,1.8129056E0,1.2467784E0,2.9178806E1,2.790144E0,1.4212734E0,1.1136385E0,4.6455555E0,4.79143E0,8.158909E0,5.984479E0,2.3194328E1,1.8034989E0,2.8420568E0,1.6165087E0,3.1749215E0,2.7094407E0,5.449468E0,3.9647877E0,2.019691E0,1.5502151E1,7.692178E0,1.0013137E0,1.840743E0,1.1476344E0,2.027287E0,1.0178798E0,1.6915609E0,1.5580859E0,3.8913822E0,1.0274937E0,2.937294E0,1.3934825E1,1.5673248E0,4.6630516E0,3.0291264E0],"tree_param":{"num_deleted":"0","num_feature":"15","num_nodes":"45","size_leaf_vector":"1"}},{"base_weights":[-1.7864035E-2,-5.8899753E-2,1.3169388E-1,-1.348342E-2,-4.1632995E-1,2.1772541E-1,8.5886195E-3,-2.4375479E-1,4.5803558E-2,-2.2904772E-1,1.259598E-2,1.3552573E-1,-1.1706923E-1,-5.208567E-1,-4.115119E-2,3.813381E-1,6.6393716E-3,1.6981785E-1,-9.099809E-5,-2.5793863E-2,-2.0489521E-1,-1.0526461E-1,9.600922E-2,7.9827905E-3,1.6283982E-1,1.0763499E-1,-2.0672163E-1,-1.443944E-1,2.510897E-1,-6.1110023E-2,9.302949E-2,7.684602E-2,-7.9503484E-2,-1.3130905E-1,6.62325E-2,4.0551826E-2,-2.0089822E-1,1.6625993E-1,-5.199151E-2],"categories":[],"categories_nodes":[],"categories_segments":[],"categories_sizes":[],"default_left":[0,0,0,0,0,0,0,0,0,0,0,0,0,0,0,0,0,0,0,0,0,0,0,0,0,0,0,0,0,0,0,0,0,0,0,0,0,0,0],"id":24,"left_children":[1,3,5,7,9,-1,11,13,15,-1,-1,17,-1,19,21,23,25,-1,27,-1,-1,-1,29,-1,-1,31,33,35,37,-1,-1,-1,-1,-1,-1,-1,-1,-1,-1],"loss_changes":[3.5599893E-1,7.283966E-1,9.0981364E-1,5.729826E-1,8.378217E-1,0E0,6.2939435E-1,4.604957E-1,4.3858773E-1,0E0,0E0,5.477622E-1,0E0,1.9084758E-1,2.9047164E-1,1.8549794E-1,6.919236E-1,0E0,3.3106083E-1,0E0,0E0,0E0,3.8234797E-1,0E0,0E0,1.2716662E0,1.1163193E0,9.4232047E-1,5.247718E-1,0E0,0E0,0E0,0E0,0E0,0E0,0E0,0E0,0E0,0E0],"parents":[2147483647,0,0,1,1,2,2,3,3,4,4,6,6,7,7,8,8,11,11,13,13,14,14,15,15,16,16,18,18,22,22,25,25,26,26,27,27,28,28],"right_children":[2,4,6,8,10,-1,12,14,16,-1,-1,18,-1,20,22,24,26,-1,28,-1,-1,-1,30,-1,-1,32,34,36,38,-1,-1,-1,-1,-1,-1,-1,-1,-1,-1],"split_conditions":[4.3E1,3.7E1,4.4E1,1E0,5E0,2.1772541E-1,1E1,1E0,4E0,-2.2904772E-1,1.259598E-2,1E0,-1.1706923E-1,6E0,2E1,7E0,1E0,1.6981785E-1,5.8E1,-2.5793863E-2,-2.0489521E-1,-1.0526461E-1,1E0,7.9827905E-3,1.6283982E-1,1E0,1E0,5.5E1,1E0,-6.1110023E-2,9.302949E-2,7.684602E-2,-7.9503484E-2,-1.3130905E-1,6.62325E-2,4.0551826E-2,-2.0089822E-1,1.6625993E-1,-5.199151E-2],"split_indices":[10,10,10,2,11,0,11,0,14,0,0,0,0,11,10,11,12,0,10,0,0,0,1,0,0,13,13,10,13,0,0,0,0,0,0,0,0,0,0],"split_type":[0,0,0,0,0,0,0,0,0,0,0,0,0,0,0,0,0,0,0,0,0,0,0,0,0,0,0,0,0,0,0,0,0,0,0,0,0,0,0],"sum_hessian":[5.574269E1,4.4216686E1,1.1526005E1,4.0152493E1,4.0641932E0,1.1381879E0,1.0387817E1,7.5841436E0,3.2568348E1,1.9336461E0,2.130547E0,8.380603E0,2.007214E0,2.5397286E0,5.044415E0,2.4909055E0,3.0077444E1,1.2472075E0,7.133395E0,1.1052952E0,1.4344335E0,1.0699973E0,3.974418E0,1.1434845E0,1.347421E0,2.0750572E1,9.326872E0,4.8005915E0,2.332804E0,1.6762772E0,2.2981408E0,1.5060726E1,5.689845E0,6.039752E0,3.2871203E0,3.6177454E0,1.182846E0,1.1824317E0,1.1503723E0],"tree_param":{"num_deleted":"0","num_feature":"15","num_nodes":"39","size_leaf_vector":"1"}},{"base_weights":[-1.5842184E-2,2.2302629E-4,-1.1534132E-1,-2.5946517E-2,1.2882335E-1,-2.016706E-1,7.0587536E-3,-4.17897E-1,1.183055E-1,-7.0100404E-2,1.3021575E-1,-2.5200535E-2,-1.5422383E-1,9.648767E-2,-6.589803E-2,-2.83215E-2,-1.6945754E-1,3.3155255E-2,5.1004434E-1,-2.5992341E-2,1.2575871E-1,5.526119E-2,-7.98195E-2,2.2995178E-1,1.3024995E-2],"categories":[],"categories_nodes":[],"categories_segments":[],"categories_sizes":[],"default_left":[0,0,0,0,0,0,0,0,0,0,0,0,0,0,0,0,0,0,0,0,0,0,0,0,0],"id":25,"left_children":[1,3,-1,5,-1,7,9,11,13,15,17,-1,-1,-1,-1,19,-1,21,23,-1,-1,-1,-1,-1,-1],"loss_changes":[3.3342987E-1,6.281745E-1,0E0,3.0720577E-1,0E0,6.285771E-1,4.4009534E-1,1.24319136E-1,3.561491E-1,5.737949E-1,6.400107E-1,0E0,0E0,0E0,0E0,7.504964E-1,0E0,7.387974E-1,3.92412E-1,0E0,0E0,0E0,0E0,0E0,0E0],"parents":[2147483647,0,0,1,1,3,3,5,5,6,6,7,7,8,8,9,9,10,10,15,15,17,17,18,18],"right_children":[2,4,-1,6,-1,8,10,12,14,16,18,-1,-1,-1,-1,20,-1,22,24,-1,-1,-1,-1,-1,-1],"split_conditions":[7.4E1,5.8E1,-1.1534132E-1,1E0,1.2882335E-1,2.8E1,7E0,6E0,1E0,5.5E1,4.3E1,-2.5200535E-2,-1.5422383E-1,9.648767E-2,-6.589803E-2,4.6E1,-1.6945754E-1,3E1,4.5E1,-2.5992341E-2,1.2575871E-1,5.526119E-2,-7.98195E-2,2.2995178E-1,1.3024995E-2],"split_indices":[10,10,0,8,0,10,11,11,9,10,10,0,0,0,0,10,0,10,10,0,0,0,0,0,0],"split_type":[0,0,0,0,0,0,0,0,0,0,0,0,0,0,0,0,0,0,0,0,0,0,0,0,0],"sum_hessian":[5.528816E1,5.3936928E1,1.3512297E0,5.1722706E1,2.2142222E0,7.37058E0,4.4352127E1,4.2157373E0,3.1548433E0,2.753313E1,1.6818995E1,1.3617632E0,2.8539739E0,1.9999948E0,1.1548486E0,2.6364107E1,1.1690239E0,1.4261847E1,2.5571477E0,2.4037924E1,2.326183E0,9.73296E0,4.528887E0,1.2354738E0,1.321674E0],"tree_param":{"num_deleted":"0","num_feature":"15","num_nodes":"25","size_leaf_vector":"1"}},{"base_weights":[-1.0836891E-2,-1.4441878E-1,3.3977408E-2,-2.2054711E-1,1.2549907E-1,5.270806E-2,-9.2977606E-2,-5.347224E-2,-4.24507E-1,-1.0724365E-1,1.6660535E-1,2.240102E-2,1.3660477E-1,-1.3860893E-1,1.1762822E-1,-4.5529716E-2,-1.6123858E-1,4.910703E-2,-1.3731089E-1,4.037538E-1,-8.819375E-2,1.3923982E-2,1.8214707E-1,6.4862557E-3,1.6935179E-1,1.5541838E-2,-9.500325E-2],"categories":[],"categories_nodes":[],"categories_segments":[],"categories_sizes":[],"default_left":[0,0,0,0,0,0,0,0,0,0,0,0,0,0,0,0,0,0,0,0,0,0,0,0,0,0,0],"id":26,"left_children":[1,3,5,7,9,11,-1,13,15,-1,-1,17,-1,-1,19,-1,-1,21,-1,23,-1,25,-1,-1,-1,-1,-1],"loss_changes":[3.391731E-1,3.198208E-1,2.9087654E-1,3.675531E-1,9.8018724E-1,4.9345744E-1,0E0,5.7439905E-1,7.286197E-2,0E0,0E0,5.281147E-1,0E0,0E0,8.3010465E-1,0E0,0E0,7.427642E-1,0E0,2.3257655E-1,0E0,4.7998503E-1,0E0,0E0,0E0,0E0,0E0],"parents":[2147483647,0,0,1,1,2,2,3,3,4,4,5,5,7,7,8,8,11,11,14,14,17,17,19,19,21,21],"right_children":[2,4,6,8,10,12,-1,14,16,-1,-1,18,-1,-1,20,-1,-1,22,-1,24,-1,26,-1,-1,-1,-1,-1],"split_conditions":[1E0,1E0,7.4E1,3E1,3.2E1,5.8E1,-9.2977606E-2,1.9E1,6E0,-1.0724365E-1,1.6660535E-1,5.5E1,1.3660477E-1,-1.3860893E-1,1.1E1,-4.5529716E-2,-1.6123858E-1,4.9E1,-1.3731089E-1,5E0,-8.819375E-2,4.4E1,1.8214707E-1,6.4862557E-3,1.6935179E-1,1.5541838E-2,-9.500325E-2],"split_indices":[4,13,10,10,10,10,0,10,11,0,0,10,0,0,11,0,0,10,0,11,0,10,0,0,0,0,0],"split_type":[0,0,0,0,0,0,0,0,0,0,0,0,0,0,0,0,0,0,0,0,0,0,0,0,0,0,0],"sum_hessian":[5.483779E1,1.3217283E1,4.162051E1,1.0452221E1,2.7650616E0,4.027374E1,1.3467721E0,6.439467E0,4.0127544E0,1.3813534E0,1.3837084E0,3.8436253E1,1.8374845E0,1.3988703E0,5.0405965E0,1.8615196E0,2.1512349E0,3.726129E1,1.174961E0,2.98481E0,2.0557864E0,3.601559E1,1.2457029E0,1.2197565E0,1.7650535E0,3.306959E1,2.945999E0],"tree_param":{"num_deleted":"0","num_feature":"15","num_nodes":"27","size_leaf_vector":"1"}},{"base_weights":[-1.1425344E-2,-1.5297824E-1,2.310834E-2,-2.4221656E-1,5.588607E-2,-2.1198332E-1,5.355479E-2,8.126727E-2,-3.399943E-1,-4.0088716E-1,2.6769793E-2,1.0531209E-1,3.2389723E-2,-1.23750016E-1,-2.0595041E-1,-1.778071E-1,-6.938878E-4,9.049264E-2,-9.4089806E-2,-2.841923E-1,8.366172E-2,1.3823503E-1,3.8469166E-2,-1.7560947E-1,3.303569E-2,4.055988E-2,-1.2936798E-1,6.768373E-2,-4.720307E-3,-6.803532E-2,8.161534E-2],"categories":[],"categories_nodes":[],"categories_segments":[],"categories_sizes":[],"default_left":[0,0,0,0,0,0,0,0,0,0,0,0,0,0,0,0,0,0,0,0,0,0,0,0,0,0,0,0,0,0,0],"id":27,"left_children":[1,3,5,7,-1,9,11,-1,13,15,-1,-1,17,19,-1,-1,-1,21,23,25,-1,-1,27,-1,29,-1,-1,-1,-1,-1,-1],"loss_changes":[2.7294213E-1,3.7632588E-1,3.3468372E-1,5.4846114E-1,0E0,3.41963E-1,2.4546415E-1,0E0,5.207578E-1,2.65369E-1,0E0,0E0,2.9646772E-1,4.795865E-1,0E0,0E0,0E0,5.093145E-1,8.20272E-1,3.6210728E-1,0E0,0E0,2.57956E-1,0E0,7.5317323E-1,0E0,0E0,0E0,0E0,0E0,0E0],"parents":[2147483647,0,0,1,1,2,2,3,3,5,5,6,6,8,8,9,9,12,12,13,13,17,17,18,18,19,19,22,22,24,24],"right_children":[2,4,6,8,-1,10,12,-1,14,16,-1,-1,18,20,-1,-1,-1,22,24,26,-1,-1,28,-1,30,-1,-1,-1,-1,-1,-1],"split_conditions":[1E0,1E0,1.6E1,4E0,5.588607E-2,1E0,3E0,8.126727E-2,2.9E1,1.2E1,2.6769793E-2,1.0531209E-1,1E0,2.5E1,-2.0595041E-1,-1.778071E-1,-6.938878E-4,3E0,3E0,1E0,8.366172E-2,1.3823503E-1,2.1E1,-1.7560947E-1,3.1E1,4.055988E-2,-1.2936798E-1,6.768373E-2,-4.720307E-3,-6.803532E-2,8.161534E-2],"split_indices":[3,13,10,14,0,12,14,0,10,10,0,0,13,10,0,0,0,11,11,7,0,0,10,0,10,0,0,0,0,0,0],"split_type":[0,0,0,0,0,0,0,0,0,0,0,0,0,0,0,0,0,0,0,0,0,0,0,0,0,0,0,0,0,0,0],"sum_hessian":[5.411213E1,9.939693E0,4.4172436E1,8.096178E0,1.8435156E0,4.3811293E0,3.9791306E1,1.0124867E0,7.0836916E0,2.489177E0,1.8919524E0,1.6077496E0,3.818356E1,5.1973324E0,1.886359E0,1.3516874E0,1.1374896E0,2.635909E1,1.1824468E1,3.9267118E0,1.2706207E0,2.2791831E0,2.4079906E1,1.6897656E0,1.0134702E1,1.040199E0,2.8865128E0,4.697833E0,1.9382074E1,4.880529E0,5.254173E0],"tree_param":{"num_deleted":"0","num_feature":"15","num_nodes":"31","size_leaf_vector":"1"}},{"base_weights":[-9.982026E-3,-9.5102504E-2,4.5477472E-2,-3.1148198E-1,-4.0586956E-2,8.945474E-3,2.5966257E-1,-1.7402759E-1,4.7264568E-4,3.7555203E-3,-9.180426E-2,-1.1494359E-1,3.627745E-2,1.489371E-1,-5.6794398E-2,8.42701E-2,-1.543994E-1,1.4005412E-1,-6.53403E-2,-3.4540374E-2,3.9932007E-1,-1.0203679E-1,4.0482383E-2,2.1625619E-1,-7.869403E-2,-1.3943465E-1,1.1704864E-1,-5.224426E-2,7.930842E-2,1.5410182E-1,3.6808994E-2,3.315929E-2,-1.4278102E-2,-1.6326683E-2,1.2548536E-1,-1.1395955E-2,-1.7682076E-1],"categories":[],"categories_nodes":[],"categories_segments":[],"categories_sizes":[],"default_left":[0,0,0,0,0,0,0,0,0,0,0,0,0,0,0,0,0,0,0,0,0,0,0,0,0,0,0,0,0,0,0,0,0,0,0,0,0],"id":28,"left_children":[1,3,5,7,9,11,13,-1,-1,15,-1,-1,17,-1,-1,19,21,23,25,27,29,-1,31,33,-1,35,-1,-1,-1,-1,-1,-1,-1,-1,-1,-1,-1],"loss_changes":[2.618818E-1,2.4506757E-1,2.614561E-1,3.5802388E-1,2.2007021E-1,3.3363006E-1,6.1242414E-1,0E0,0E0,2.2853905E-1,0E0,0E0,3.129086E-1,0E0,0E0,4.578304E-1,2.3321076E-1,5.034272E-1,5.685999E-1,4.4390514E-1,4.225278E-2,0E0,2.9026812E-2,7.225768E-1,0E0,6.0941136E-1,0E0,0E0,0E0,0E0,0E0,0E0,0E0,0E0,0E0,0E0,0E0],"parents":[2147483647,0,0,1,1,2,2,3,3,4,4,5,5,6,6,9,9,12,12,15,15,16,16,17,17,18,18,19,19,20,20,22,22,23,23,25,25],"right_children":[2,4,6,8,10,12,14,-1,-1,16,-1,-1,18,-1,-1,20,22,24,26,28,30,-1,32,34,-1,36,-1,-1,-1,-1,-1,-1,-1,-1,-1,-1,-1],"split_conditions":[1E0,1E0,1.4E1,1E0,1.6E1,1E0,3.8E1,-1.7402759E-1,4.7264568E-4,3.4E1,-9.180426E-2,-1.1494359E-1,6E0,1.489371E-1,-5.6794398E-2,3.1E1,4.3E1,5.5E1,4.8E1,1.4E1,6E0,-1.0203679E-1,5.2E1,2.4E1,-7.869403E-2,4.1E1,1.1704864E-1,-5.224426E-2,7.930842E-2,1.5410182E-1,3.6808994E-2,3.315929E-2,-1.4278102E-2,-1.6326683E-2,1.2548536E-1,-1.1395955E-2,-1.7682076E-1],"split_indices":[5,0,11,6,11,9,10,0,0,10,0,0,11,0,0,10,10,10,10,11,11,0,10,10,0,10,0,0,0,0,0,0,0,0,0,0,0],"split_type":[0,0,0,0,0,0,0,0,0,0,0,0,0,0,0,0,0,0,0,0,0,0,0,0,0,0,0,0,0,0,0,0,0,0,0,0,0],"sum_hessian":[5.355857E1,2.0847126E1,3.2711445E1,3.2467413E0,1.7600386E1,2.8835028E1,3.8764164E0,1.2883344E0,1.958407E0,1.592568E1,1.6747053E0,1.0307143E0,2.7804314E1,2.4686687E0,1.4077477E0,1.086276E1,5.06292E0,1.3568895E1,1.4235418E1,8.534592E0,2.328168E0,2.2107697E0,2.8521504E0,1.1797228E1,1.771668E0,1.28405905E1,1.3948276E0,6.1019483E0,2.4326437E0,1.0409244E0,1.2872436E0,1.4466515E0,1.4054989E0,5.3542285E0,6.442999E0,1.1363123E1,1.4774684E0],"tree_param":{"num_deleted":"0","num_feature":"15","num_nodes":"37","size_leaf_vector":"1"}},{"base_weights":[-1.0385624E-2,-1.1521093E-1,2.3710957E-2,-3.2257068E-1,-1.7054766E-2,3.7647102E-2,-6.554949E-2,-1.7416307E-1,-6.3576666E-3,-1.1216038E-1,1.13204665E-1,1.2216092E-2,1.1393044E-1,7.980219E-2,-1.457197E-1,-3.9697967E-2,2.0152222E-1,2.9008305E-1,-1.792071E-1,-1.4295003E-1,-4.1682995E-3,3.7090576E-1,-4.0462654E-2,1.468395E-1,-3.868647E-2,3.8406763E-2,-1.1538092E-1,7.9344995E-3,-1.2425975E-1,1.6188343E-1,-5.838495E-2],"categories":[],"categories_nodes":[],"categories_segments":[],"categories_sizes":[],"default_left":[0,0,0,0,0,0,0,0,0,0,0,0,0,0,0,0,0,0,0,0,0,0,0,0,0,0,0,0,0,0,0],"id":29,"left_children":[1,3,5,7,9,11,-1,-1,-1,13,-1,15,-1,17,-1,19,21,23,25,-1,27,29,-1,-1,-1,-1,-1,-1,-1,-1,-1],"loss_changes":[1.9388816E-1,2.6514643E-1,1.4724512E-1,3.1550556E-1,4.204599E-1,3.4161815E-1,0E0,0E0,0E0,6.765113E-1,0E0,3.822088E-1,0E0,4.1871923E-1,0E0,4.7473702E-1,5.263422E-1,4.0551472E-1,2.7863672E-1,0E0,3.8023627E-1,6.609042E-1,0E0,0E0,0E0,0E0,0E0,0E0,0E0,0E0,0E0],"parents":[2147483647,0,0,1,1,2,2,3,3,4,4,5,5,9,9,11,11,13,13,15,15,16,16,17,17,18,18,20,20,21,21],"right_children":[2,4,6,8,10,12,-1,-1,-1,14,-1,16,-1,18,-1,20,22,24,26,-1,28,30,-1,-1,-1,-1,-1,-1,-1,-1,-1],"split_conditions":[1E0,1E0,7.4E1,3.1E1,4.3E1,5.8E1,-6.554949E-2,-1.7416307E-1,-6.3576666E-3,2.9E1,1.13204665E-1,1.4E1,1.1393044E-1,1E0,-1.457197E-1,1E0,1.6E1,1.1E1,1E0,-1.4295003E-1,5.5E1,1E0,-4.0462654E-2,1.468395E-1,-3.868647E-2,3.8406763E-2,-1.1538092E-1,7.9344995E-3,-1.2425975E-1,1.6188343E-1,-5.838495E-2],"split_indices":[4,7,10,10,10,10,0,0,0,10,0,11,0,5,0,2,11,11,1,0,10,12,0,0,0,0,0,0,0,0,0],"split_type":[0,0,0,0,0,0,0,0,0,0,0,0,0,0,0,0,0,0,0,0,0,0,0,0,0,0,0,0,0,0,0],"sum_hessian":[5.2482517E1,1.2297271E1,4.0185246E1,3.2163246E0,9.080947E0,3.8797497E1,1.3877479E0,1.2338684E0,1.9824563E0,7.8932147E0,1.1877319E0,3.7077137E1,1.7203616E0,5.7334313E0,2.1597834E0,2.9717817E1,7.3593197E0,3.0981648E0,2.6352665E0,1.3018259E0,2.841599E1,4.826494E0,2.5328255E0,1.9854175E0,1.1127473E0,1.2068194E0,1.4284471E0,2.7312117E1,1.1038742E0,3.7527869E0,1.0737075E0],"tree_param":{"num_deleted":"0","num_feature":"15","num_nodes":"31","size_leaf_vector":"1"}},{"base_weights":[-1.3818263E-2,-9.031403E-2,3.5898782E-2,-2.7242562E-1,-4.5590803E-2,-8.987183E-2,5.9217963E-2,-1.5933144E-1,2.447378E-3,3.3984583E-2,-1.4755444E-1,9.823037E-2,3.4604076E-2,1.482533E-1,-2.4227014E-1,-2.5188285E-1,7.124087E-2,-9.8528765E-2,6.422472E-2,2.4039047E-2,1.4846335E-1,-1.468009E-1,3.9549157E-2,1.1896848E-1,-4.4253835E-1,1.5515855E-1,2.7041007E-2,-9.262143E-2,4.7688875E-2,-1.9059598E-2,7.529256E-2,-3.2719262E-2,-1.8570921E-1,7.2786435E-2,-6.3996958E-3],"categories":[],"categories_nodes":[],"categories_segments":[],"categories_sizes":[],"default_left":[0,0,0,0,0,0,0,0,0,0,0,0,0,0,0,0,0,0,0,0,0,0,0,0,0,0,0,0,0,0,0,0,0,0,0],"id":30,"left_children":[1,3,5,7,9,-1,11,-1,-1,13,15,-1,17,19,21,23,-1,-1,25,27,-1,-1,-1,29,31,-1,33,-1,-1,-1,-1,-1,-1,-1,-1],"loss_changes":[2.0359924E-1,1.589151E-1,2.7312204E-1,2.90784E-1,1.5179297E-1,0E0,1.9569397E-1,0E0,0E0,3.8231316E-1,3.858546E-1,0E0,3.4198058E-1,3.4903148E-1,3.9636585E-1,5.384989E-1,0E0,0E0,4.648006E-1,3.7335867E-1,0E0,0E0,0E0,9.114121E-2,2.1206361E-1,0E0,2.901293E-1,0E0,0E0,0E0,0E0,0E0,0E0,0E0,0E0],"parents":[2147483647,0,0,1,1,2,2,3,3,4,4,6,6,9,9,10,10,12,12,13,13,14,14,15,15,18,18,19,19,23,23,24,24,26,26],"right_children":[2,4,6,8,10,-1,12,-1,-1,14,16,-1,18,20,22,24,-1,-1,26,28,-1,-1,-1,30,32,-1,34,-1,-1,-1,-1,-1,-1,-1,-1],"split_conditions":[1E0,1E0,1E0,1E0,1.1E1,-8.987183E-2,9E0,-1.5933144E-1,2.447378E-3,1E0,1E0,9.823037E-2,1.3E1,7E0,1E0,2.2E1,7.124087E-2,-9.8528765E-2,3E0,2.5E1,1.4846335E-1,-1.468009E-1,3.9549157E-2,1.9E1,1E0,1.5515855E-1,1E0,-9.262143E-2,4.7688875E-2,-1.9059598E-2,7.529256E-2,-3.2719262E-2,-1.8570921E-1,7.2786435E-2,-6.3996958E-3],"split_indices":[5,0,8,6,11,0,10,0,0,13,13,0,10,11,7,10,0,0,14,10,0,0,0,10,6,0,0,0,0,0,0,0,0,0,0],"split_type":[0,0,0,0,0,0,0,0,0,0,0,0,0,0,0,0,0,0,0,0,0,0,0,0,0,0,0,0,0,0,0,0,0,0,0],"sum_hessian":[5.168196E1,2.0036613E1,3.1645348E1,2.9466362E0,1.7089977E1,1.2867947E0,3.0358553E1,1.0686004E0,1.8780359E0,9.973257E0,7.1167207E0,1.5176747E0,2.8840878E1,7.3828115E0,2.590446E0,5.871534E0,1.2451864E0,1.414673E0,2.7426205E1,6.2223573E0,1.1604543E0,1.3745934E0,1.2158526E0,2.121305E0,3.7502291E0,1.1012796E0,2.6324924E1,1.4234099E0,4.7989473E0,1.1080866E0,1.0132183E0,1.8578539E0,1.8923751E0,4.0885043E0,2.2236422E1],"tree_param":{"num_deleted":"0","num_feature":"15","num_nodes":"35","size_leaf_vector":"1"}},{"base_weights":[-1.2434862E-2,-1.0959896E-1,2.35679E-2,1.09157264E-1,-2.0373972E-1,-1.3886543E-2,2.2283341E-1,-2.0200218E-1,-5.9860703E-2,2.0558298E-2,-1.3109207E-1,1.4103484E-1,4.268889E-3,1.0423505E-1,-4.1260016E-1,-5.8748785E-2,2.4280724E-1,-6.9592975E-2,6.624602E-2,-2.0177598E-1,3.0335525E-1,-1.5273744E-1,-3.1026516E-2,-2.1412985E-1,3.3285778E-2,-4.913222E-2,3.5671613E-1,6.0845997E-2,-1.4110668E-1,6.58126E-3,1.5041743E-1,9.778698E-2,-1.178275E-1,1.532367E-1,-1.2999249E-2,1.7788793E-1,1.7675677E-2],"categories":[],"categories_nodes":[],"categories_segments":[],"categories_sizes":[],"default_left":[0,0,0,0,0,0,0,0,0,0,0,0,0,0,0,0,0,0,0,0,0,0,0,0,0,0,0,0,0,0,0,0,0,0,0,0,0],"id":31,"left_children":[1,3,5,-1,7,9,11,-1,13,15,-1,-1,17,19,21,23,25,-1,-1,27,29,-1,-1,31,33,-1,35,-1,-1,-1,-1,-1,-1,-1,-1,-1,-1],"loss_changes":[1.8549427E-1,7.121013E-1,2.9397392E-1,0E0,8.0969864E-1,5.008128E-1,3.3445162E-1,0E0,6.639491E-1,5.8117193E-1,0E0,0E0,2.7190977E-1,5.559759E-1,5.5010557E-2,3.576274E-1,4.5919383E-1,0E0,0E0,5.084757E-1,2.8540516E-1,0E0,0E0,1.0205839E0,6.1692613E-1,0E0,4.6276426E-1,0E0,0E0,0E0,0E0,0E0,0E0,0E0,0E0,0E0,0E0],"parents":[2147483647,0,0,1,1,2,2,4,4,5,5,6,6,8,8,9,9,12,12,13,13,14,14,15,15,16,16,19,19,20,20,23,23,24,24,26,26],"right_children":[2,4,6,-1,8,10,12,-1,14,16,-1,-1,18,20,22,24,26,-1,-1,28,30,-1,-1,32,34,-1,36,-1,-1,-1,-1,-1,-1,-1,-1,-1,-1],"split_conditions":[1E0,1.8E1,4.8E1,1.09157264E-1,2.2E1,4.5E1,5.6E1,-2.0200218E-1,3.8E1,8E0,-1.3109207E-1,1.4103484E-1,6.3E1,1E0,1.3E1,2E1,1E0,-6.9592975E-2,6.624602E-2,2.6E1,3.1E1,-1.5273744E-1,-3.1026516E-2,4E0,2.1E1,-4.913222E-2,1.5E1,6.0845997E-2,-1.4110668E-1,6.58126E-3,1.5041743E-1,9.778698E-2,-1.178275E-1,1.532367E-1,-1.2999249E-2,1.7788793E-1,1.7675677E-2],"split_indices":[6,10,10,0,10,10,10,0,10,11,0,0,10,1,11,10,8,0,0,10,10,0,0,11,10,0,11,0,0,0,0,0,0,0,0,0,0],"split_type":[0,0,0,0,0,0,0,0,0,0,0,0,0,0,0,0,0,0,0,0,0,0,0,0,0,0,0,0,0,0,0,0,0,0,0,0,0],"sum_hessian":[5.128761E1,1.3313368E1,3.797424E1,1.7329433E0,1.1580425E1,3.2748974E1,5.225268E0,1.852903E0,9.727522E0,3.1163282E1,1.5856917E0,1.911585E0,3.3136828E0,7.119842E0,2.6076796E0,2.3509748E1,7.6535325E0,1.5507104E0,1.7629722E0,2.8013484E0,4.318494E0,1.4944232E0,1.1132566E0,8.25176E0,1.525799E1,1.5791657E0,6.0743666E0,1.2153512E0,1.5859972E0,2.242534E0,2.0759597E0,1.8458935E0,6.405866E0,1.3261446E0,1.3931845E1,2.8345525E0,3.239814E0],"tree_param":{"num_deleted":"0","num_feature":"15","num_nodes":"37","size_leaf_vector":"1"}},{"base_weights":[-7.54336E-3,-8.8637404E-2,4.4156224E-2,4.8556466E-2,-1.5256101E-1,-1.0696363E-1,8.449195E-2,-7.0657276E-2,1.9204006E-1,-3.1337327E-1,-5.479204E-2,1.5508875E-1,-2.9985014E-1,4.6025444E-2,1.2453725E-1,1.1120079E-1,-3.8846474E-2,1.3457054E-2,-1.3444145E-1,5.2918114E-2,-1.1606069E-1,-1.5677446E-1,-2.1166146E-2,-1.156875E-1,9.675112E-2,-1.00344315E-1,8.404637E-2,1.1595847E-1,-3.1147305E-2,3.1316765E-2,-4.4882353E-2,-1.2895525E-1,1.6658463E-1,-2.0577006E-1,1.7638409E-1,1.463567E-1,-2.4959167E-2,-7.975472E-2,1.3941573E-1,3.6992244E-2,-1.534487E-1,1.3185394E-1,2.602329E-3],"categories":[],"categories_nodes":[],"categories_segments":[],"categories_sizes":[],"default_left":[0,0,0,0,0,0,0,0,0,0,0,0,0,0,0,0,0,0,0,0,0,0,0,0,0,0,0,0,0,0,0,0,0,0,0,0,0,0,0,0,0,0,0],"id":32,"left_children":[1,3,5,7,9,11,13,-1,15,17,19,-1,21,23,-1,-1,25,-1,-1,27,-1,-1,29,31,33,-1,-1,35,-1,-1,-1,-1,37,39,41,-1,-1,-1,-1,-1,-1,-1,-1],"loss_changes":[2.2073284E-1,1.8689807E-1,2.0561224E-1,3.4130526E-1,2.0613334E-1,1.0257826E0,3.1174016E-1,0E0,2.3616217E-1,2.6912248E-1,3.7975127E-1,0E0,3.712868E-1,2.1156856E-1,0E0,0E0,4.0025893E-1,0E0,0E0,9.567563E-2,0E0,0E0,7.655028E-2,6.292317E-1,4.9736646E-1,0E0,0E0,5.226697E-1,0E0,0E0,0E0,0E0,6.434746E-1,5.107469E-1,6.885451E-1,0E0,0E0,0E0,0E0,0E0,0E0,0E0,0E0],"parents":[2147483647,0,0,1,1,2,2,3,3,4,4,5,5,6,6,8,8,9,9,10,10,12,12,13,13,16,16,19,19,22,22,23,23,24,24,27,27,32,32,33,33,34,34],"right_children":[2,4,6,8,10,12,14,-1,16,18,20,-1,22,24,-1,-1,26,-1,-1,28,-1,-1,30,32,34,-1,-1,36,-1,-1,-1,-1,38,40,42,-1,-1,-1,-1,-1,-1,-1,-1],"split_conditions":[1E0,5E0,1E0,1E0,2.4E1,1.9E1,1.4E1,-7.0657276E-2,2.8E1,1E0,4.5E1,1.5508875E-1,1.3E1,1E0,1.2453725E-1,1.1120079E-1,4E1,1.3457054E-2,-1.3444145E-1,1E0,-1.1606069E-1,-1.5677446E-1,1.5E1,2.4E1,1.6E1,-1.00344315E-1,8.404637E-2,8E0,-3.1147305E-2,3.1316765E-2,-4.4882353E-2,-1.2895525E-1,1E0,1.1E1,2.5E1,1.463567E-1,-2.4959167E-2,-7.975472E-2,1.3941573E-1,3.6992244E-2,-1.534487E-1,1.3185394E-1,2.602329E-3],"split_indices":[5,11,6,4,10,10,11,0,10,1,10,0,11,7,0,0,10,0,0,13,0,0,11,10,10,0,0,11,0,0,0,0,12,10,10,0,0,0,0,0,0,0,0],"split_type":[0,0,0,0,0,0,0,0,0,0,0,0,0,0,0,0,0,0,0,0,0,0,0,0,0,0,0,0,0,0,0,0,0,0,0,0,0,0,0,0,0,0,0],"sum_hessian":[5.0715557E1,1.9466562E1,3.1248995E1,6.263702E0,1.320286E1,6.235509E0,2.5013485E1,1.8867285E0,4.3769736E0,4.158174E0,9.044686E0,1.0757297E0,5.1597795E0,2.3427124E1,1.5863609E0,2.1264174E0,2.250556E0,1.3190476E0,2.8391263E0,7.464272E0,1.5804142E0,2.3813598E0,2.7784195E0,5.2880926E0,1.8139032E1,1.1428717E0,1.1076843E0,5.508858E0,1.9554137E0,1.4996922E0,1.2787273E0,2.2552357E0,3.032857E0,3.449728E0,1.4689304E1,1.4156666E0,4.0931916E0,1.2818578E0,1.750999E0,1.9487747E0,1.5009533E0,5.087136E0,9.602169E0],"tree_param":{"num_deleted":"0","num_feature":"15","num_nodes":"43","size_leaf_vector":"1"}},{"base_weights":[-6.507954E-3,-1.02888286E-1,2.3427267E-2,-1.7133424E-1,1.3484001E-1,6.7508996E-2,-6.595012E-2,-3.1789877E-2,-3.4942397E-1,-3.456511E-2,9.01426E-2,1.3258997E-1,-7.27221E-2,2.1908958E-1,-2.4988331E-1,-1.0823327E-1,9.5445596E-2,-4.5764916E-2,-1.3315722E-1,2.6710606E-1,-1.6573475E-1,-4.6412265E-1,4.7568163E-1,-1.1329335E-1,5.344033E-1,2.757995E-2,-3.2509091E-1,3.0771276E-1,-6.73723E-2,-9.030888E-2,3.853684E-1,5.5648893E-2,-2.8666863E-1,4.4059172E-2,-6.2486845E-1,1.8553829E-1,1.8612115E-2,1.0420275E-2,2.4263132E-1,-4.9360654E-1,-2.2467714E-2,2.9452725E-3,1.2918836E-1,-2.749164E-2,1.5011966E-1,3.5311154E-5,-1.2709442E-1,-7.472536E-2,-2.3873465E-1,1.3957502E-3,-2.0858058E-1,1.2262908E-1,-1.2974334E-1],"categories":[],"categories_nodes":[],"categories_segments":[],"categories_sizes":[],"default_left":[0,0,0,0,0,0,0,0,0,0,0,0,0,0,0,0,0,0,0,0,0,0,0,0,0,0,0,0,0,0,0,0,0,0,0,0,0,0,0,0,0,0,0,0,0,0,0,0,0,0,0,0,0],"id":33,"left_children":[1,3,5,7,9,11,13,15,17,-1,-1,19,21,23,25,-1,27,-1,-1,29,31,33,35,-1,37,-1,39,41,-1,-1,43,-1,45,-1,47,-1,-1,-1,-1,49,51,-1,-1,-1,-1,-1,-1,-1,-1,-1,-1,-1,-1],"loss_changes":[1.4965884E-1,2.2292462E-1,1.6108696E-1,2.3679805E-1,1.7150399E-1,2.5713724E-1,7.697256E-1,3.1460145E-1,1.1906207E-2,0E0,0E0,8.017781E-1,2.2045326E0,1.3084551E0,2.549749E-1,0E0,4.5068464E-1,0E0,0E0,1.0158802E0,3.2856673E-1,6.711463E-1,2.1811819E-1,0E0,5.562204E-1,0E0,3.6614466E-1,1.3487968E-1,0E0,0E0,6.781901E-1,0E0,2.0494476E-1,0E0,1.13969564E-1,0E0,0E0,0E0,0E0,4.7586477E-1,8.298277E-1,0E0,0E0,0E0,0E0,0E0,0E0,0E0,0E0,0E0,0E0,0E0,0E0],"parents":[2147483647,0,0,1,1,2,2,3,3,4,4,5,5,6,6,7,7,8,8,11,11,12,12,13,13,14,14,16,16,19,19,20,20,21,21,22,22,24,24,26,26,27,27,30,30,32,32,34,34,39,39,40,40],"right_children":[2,4,6,8,10,12,14,16,18,-1,-1,20,22,24,26,-1,28,-1,-1,30,32,34,36,-1,38,-1,40,42,-1,-1,44,-1,46,-1,48,-1,-1,-1,-1,50,52,-1,-1,-1,-1,-1,-1,-1,-1,-1,-1,-1,-1],"split_conditions":[1E0,1E0,1E0,3E1,1E0,1E0,6E0,1.9E1,1E0,-3.456511E-2,9.01426E-2,3.6E1,3.1E1,3E0,1E0,-1.0823327E-1,1.1E1,-4.5764916E-2,-1.3315722E-1,1E0,1E0,1.7E1,5.6E1,-1.1329335E-1,1E0,2.757995E-2,3.1E1,5E0,-6.73723E-2,-9.030888E-2,1E0,5.5648893E-2,5E0,4.4059172E-2,2.2E1,1.8553829E-1,1.8612115E-2,1.0420275E-2,2.4263132E-1,1.8E1,4.4E1,2.9452725E-3,1.2918836E-1,-2.749164E-2,1.5011966E-1,3.5311154E-5,-1.2709442E-1,-7.472536E-2,-2.3873465E-1,1.3957502E-3,-2.0858058E-1,1.2262908E-1,-1.2974334E-1],"split_indices":[4,13,13,10,5,12,11,10,6,0,0,10,10,11,7,0,11,0,0,0,7,10,10,0,7,0,10,11,0,0,1,0,11,0,10,0,0,0,0,10,10,0,0,0,0,0,0,0,0,0,0,0,0],"split_type":[0,0,0,0,0,0,0,0,0,0,0,0,0,0,0,0,0,0,0,0,0,0,0,0,0,0,0,0,0,0,0,0,0,0,0,0,0,0,0,0,0,0,0,0,0,0,0,0,0,0,0,0,0],"sum_hessian":[5.003638E1,1.1280457E1,3.8755924E1,8.975535E0,2.304921E0,2.6118649E1,1.2637277E1,5.693124E0,3.282411E0,1.0396984E0,1.2652227E0,1.7876629E1,8.242019E0,4.8814297E0,7.755847E0,1.0758446E0,4.6172795E0,1.9119043E0,1.3705068E0,1.2393146E1,5.483484E0,4.8991427E0,3.3428764E0,1.6192695E0,3.2621605E0,1.3586102E0,6.397237E0,2.7991068E0,1.8181725E0,1.8689961E0,1.0524149E1,1.2677276E0,4.215756E0,1.0384412E0,3.8607016E0,2.1169813E0,1.2258953E0,1.555654E0,1.7065065E0,3.7037258E0,2.693511E0,1.1330168E0,1.66609E0,2.084309E0,8.43984E0,1.6856802E0,2.530076E0,1.9752141E0,1.8854873E0,1.3485955E0,2.3551302E0,1.3142638E0,1.3792473E0],"tree_param":{"num_deleted":"0","num_feature":"15","num_nodes":"53","size_leaf_vector":"1"}},{"base_weights":[-9.423622E-3,-1.5504877E-1,2.4602E-2,-5.543055E-2,-1.4873123E-1,-1.5628725E-1,4.8933093E-2,-1.8403432E-1,1.1378104E-1,-3.1971702E-1,2.7979394E-2,6.904356E-3,2.1597728E-1,-2.8710198E-1,4.7658067E-2,-1.5344878E-1,1.1817041E-2,-5.1505193E-2,1.539941E-1,3.73096E-1,-4.4742174E-2,-1.7835662E-1,-7.7016726E-2,1.4885634E-2,-3.5893553E-1,1.3373487E-1,6.0341973E-2,1.4146565E-1,3.5212208E-2,-1.1041274E-1,4.271974E-2,-2.2011902E-2,9.482343E-2,-1.5891314E-1,5.0646896E-3,5.7950843E-2,-6.437465E-2],"categories":[],"categories_nodes":[],"categories_segments":[],"categories_sizes":[],"default_left":[0,0,0,0,0,0,0,0,0,0,0,0,0,0,0,0,0,0,0,0,0,0,0,0,0,0,0,0,0,0,0,0,0,0,0,0,0],"id":34,"left_children":[1,3,5,7,-1,9,11,13,-1,15,-1,17,19,21,-1,-1,-1,23,25,27,-1,-1,29,31,33,-1,35,-1,-1,-1,-1,-1,-1,-1,-1,-1,-1],"loss_changes":[2.5260773E-1,2.9995134E-1,1.9058006E-1,5.500304E-1,0E0,2.405214E-1,2.6106456E-1,3.0368513E-1,0E0,2.5069848E-1,0E0,2.735172E-1,4.8502347E-1,3.3984083E-1,0E0,0E0,0E0,4.722498E-1,2.200529E-1,8.3594084E-2,0E0,0E0,3.5226274E-1,5.488189E-1,2.7224624E-1,0E0,3.3351162E-1,0E0,0E0,0E0,0E0,0E0,0E0,0E0,0E0,0E0,0E0],"parents":[2147483647,0,0,1,1,2,2,3,3,5,5,6,6,7,7,9,9,11,11,12,12,13,13,17,17,18,18,19,19,22,22,23,23,24,24,26,26],"right_children":[2,4,6,8,-1,10,12,14,-1,16,-1,18,20,22,-1,-1,-1,24,26,28,-1,-1,30,32,34,-1,36,-1,-1,-1,-1,-1,-1,-1,-1,-1,-1],"split_conditions":[1E0,3.3E1,1.6E1,1E0,-1.4873123E-1,1E0,1.4E1,1.5E1,1.1378104E-1,1.2E1,2.7979394E-2,4.3E1,3.8E1,1E0,4.7658067E-2,-1.5344878E-1,1.1817041E-2,3.6E1,1E0,1.6E1,-4.4742174E-2,-1.7835662E-1,5E0,3.1E1,5E0,1.3373487E-1,1E0,1.4146565E-1,3.5212208E-2,-1.1041274E-1,4.271974E-2,-2.2011902E-2,9.482343E-2,-1.5891314E-1,5.0646896E-3,5.7950843E-2,-6.437465E-2],"split_indices":[3,10,10,13,0,12,11,11,0,10,0,10,10,9,0,0,0,10,0,11,0,0,11,10,11,0,13,0,0,0,0,0,0,0,0,0,0],"split_type":[0,0,0,0,0,0,0,0,0,0,0,0,0,0,0,0,0,0,0,0,0,0,0,0,0,0,0,0,0,0,0,0,0,0,0,0,0],"sum_hessian":[4.9210682E1,8.646781E0,4.0563904E1,7.590269E0,1.0565115E0,4.166292E0,3.639761E1,6.302385E0,1.2878841E0,2.3476613E0,1.818631E0,2.9912806E1,6.484804E0,4.970928E0,1.331457E0,1.2537498E0,1.0939115E0,2.1875751E1,8.037054E0,4.518526E0,1.966278E0,1.275121E0,3.695807E0,1.8773186E1,3.102565E0,1.0392163E0,6.997838E0,2.6530614E0,1.8654648E0,1.2974886E0,2.3983185E0,1.5103723E1,3.6694636E0,1.8516653E0,1.2508997E0,4.9187517E0,2.079086E0],"tree_param":{"num_deleted":"0","num_feature":"15","num_nodes":"37","size_leaf_vector":"1"}},{"base_weights":[-1.0206233E-2,-9.5226645E-2,4.386962E-2,9.13291E-2,-1.350499E-1,-8.276599E-2,6.4908996E-2,-1.890269E-2,8.335974E-2,-2.9584065E-1,-3.61123E-2,8.928246E-2,-1.5711555E-1,3.5351515E-2,-1.5466094E-1,2.3785208E-1,-1.6192642E-1,5.411724E-2,1.3000384E-1,-9.21756E-2,2.1238295E-2,1.2815034E-1,8.718681E-3,-2.6241913E-1,3.4457568E-2,9.390543E-2,2.6433077E-2,-1.0005151E-2,-1.13586485E-1,-7.690455E-2,1.8516421E-2],"categories":[],"categories_nodes":[],"categories_segments":[],"categories_sizes":[],"default_left":[0,0,0,0,0,0,0,0,0,0,0,0,0,0,0,0,0,0,0,0,0,0,0,0,0,0,0,0,0,0,0],"id":35,